{"learner":{"attributes":{"scikit_learn":"{\"_estimator_type\": \"classifier\"}"},"feature_names":[],"feature_types":[],"gradient_booster":{"model":{"gbtree_model_param":{"num_parallel_tree":"1","num_trees":"100"},"iteration_indptr":[0,1,2,3,4,5,6,7,8,9,10,11,12,13,14,15,16,17,18,19,20,21,22,23,24,25,26,27,28,29,30,31,32,33,34,35,36,37,38,39,40,41,42,43,44,45,46,47,48,49,50,51,52,53,54,55,56,57,58,59,60,61,62,63,64,65,66,67,68,69,70,71,72,73,74,75,76,77,78,79,80,81,82,83,84,85,86,87,88,89,90,91,92,93,94,95,96,97,98,99,100],"tree_info":[0,0,0,0,0,0,0,0,0,0,0,0,0,0,0,0,0,0,0,0,0,0,0,0,0,0,0,0,0,0,0,0,0,0,0,0,0,0,0,0,0,0,0,0,0,0,0,0,0,0,0,0,0,0,0,0,0,0,0,0,0,0,0,0,0,0,0,0,0,0,0,0,0,0,0,0,0,0,0,0,0,0,0,0,0,0,0,0,0,0,0,0,0,0,0,0,0,0,0,0],"trees":[{"base_weights":[-6.1983997E-1,1.5234733E-3,-9.668529E-1,5.071674E-1,-2.732814E-1,-1.08117E0,-6.118982E-1,1.6410749E-1,-2.2386707E-2,-2.2660816E-2,-1.1844993E-1,-1.8853007E-1,-2.1895492E-1,-5.141168E-2,-1.3528879E-1],"categories":[],"categories_nodes":[],"categories_segments":[],"categories_sizes":[],"default_left":[0,0,0,0,0,0,0,0,0,0,0,0,0,0,0],"id":0,"left_children":[1,3,5,7,9,11,13,-1,-1,-1,-1,-1,-1,-1,-1],"loss_changes":[5.4390216E2,1.2560788E2,6.56759E1,7.001989E1,3.1423462E1,7.526001E0,1.3054443E1,0E0,0E0,0E0,0E0,0E0,0E0,0E0,0E0],"parents":[2147483647,0,0,1,1,2,2,3,3,4,4,5,5,6,6],"right_children":[2,4,6,8,10,12,14,-1,-1,-1,-1,-1,-1,-1,-1],"split_conditions":[2.5079872E1,6E0,1E0,3.2347443E1,3.9986885E1,5.2924473E1,5E0,1.6410749E-1,-2.2386707E-2,-2.2660816E-2,-1.1844993E-1,-1.8853007E-1,-2.1895492E-1,-5.141168E-2,-1.3528879E-1],"split_indices":[5,10,3,6,6,5,10,0,0,0,0,0,0,0,0],"split_type":[0,0,0,0,0,0,0,0,0,0,0,0,0,0,0],"sum_hessian":[2.522462E3,9.039081E2,1.618554E3,3.1828113E2,5.8562695E2,1.2242576E3,3.9429626E2,2.0348273E2,1.1479839E2,4.0515558E2,1.8047134E2,5.0353574E2,7.2072186E2,8.674518E1,3.075511E2],"tree_param":{"num_deleted":"0","num_feature":"39","num_nodes":"15","size_leaf_vector":"1"}},{"base_weights":[-5.6115824E-1,2.3125669E-2,-9.110177E-1,4.174749E-1,-2.1898183E-1,-1.0369873E0,-5.7175565E-1,-2.1275943E-2,1.2895754E-1,1.20065905E-1,-5.404006E-2,-1.7349824E-1,-2.120891E-1,-1.16830885E-1,-1.5188228E-2],"categories":[],"categories_nodes":[],"categories_segments":[],"categories_sizes":[],"default_left":[0,0,0,0,0,0,0,0,0,0,0,0,0,0,0],"id":1,"left_children":[1,3,5,7,9,11,13,-1,-1,-1,-1,-1,-1,-1,-1],"loss_changes":[4.7460162E2,8.3023544E1,6.2059937E1,4.5123062E1,2.9251833E1,1.002478E1,7.7606964E0,0E0,0E0,0E0,0E0,0E0,0E0,0E0,0E0],"parents":[2147483647,0,0,1,1,2,2,3,3,4,4,5,5,6,6],"right_children":[2,4,6,8,10,12,14,-1,-1,-1,-1,-1,-1,-1,-1],"split_conditions":[2.433105E1,6E0,1E0,1E0,8.062258E0,4.9517673E1,1.4538225E2,-2.1275943E-2,1.2895754E-1,1.20065905E-1,-5.404006E-2,-1.7349824E-1,-2.120891E-1,-1.16830885E-1,-1.5188228E-2],"split_indices":[5,10,3,4,5,5,11,0,0,0,0,0,0,0,0],"split_type":[0,0,0,0,0,0,0,0,0,0,0,0,0,0,0],"sum_hessian":[2.3216985E3,8.6952856E2,1.4521698E3,3.307737E2,5.387548E2,1.0589613E3,3.932086E2,1.0841646E2,2.2235727E2,3.7831234E1,5.009236E2,3.864845E2,6.724768E2,3.635756E2,2.9632992E1],"tree_param":{"num_deleted":"0","num_feature":"39","num_nodes":"15","size_leaf_vector":"1"}},{"base_weights":[-4.92205E-1,-9.200085E-2,-9.6892965E-1,-3.9035794E-1,2.4325025E-1,-7.178075E-1,-1.0357999E0,-4.538975E-2,-1.2733178E-1,1.6407423E-1,3.7538156E-2,-1.1814047E-1,-1.8307829E-1,-1.7938438E-1,-2.1114795E-1],"categories":[],"categories_nodes":[],"categories_segments":[],"categories_sizes":[],"default_left":[0,0,0,0,0,0,0,0,0,0,0,0,0,0,0],"id":2,"left_children":[1,3,5,7,9,11,13,-1,-1,-1,-1,-1,-1,-1,-1],"loss_changes":[4.0996503E2,1.1684925E2,1.6466797E1,2.608789E1,1.5812149E1,4.925377E0,5.2235107E0,0E0,0E0,0E0,0E0,0E0,0E0,0E0,0E0],"parents":[2147483647,0,0,1,1,2,2,3,3,4,4,5,5,6,6],"right_children":[2,4,6,8,10,12,14,-1,-1,-1,-1,-1,-1,-1,-1],"split_conditions":[3.342155E1,1E0,4.0311287E1,4.3090847E1,7.071068E0,3.9289406E1,6.0373837E1,-4.538975E-2,-1.2733178E-1,1.6407423E-1,3.7538156E-2,-1.1814047E-1,-1.8307829E-1,-1.7938438E-1,-2.1114795E-1],"split_indices":[5,4,5,6,5,6,5,0,0,0,0,0,0,0,0],"split_type":[0,0,0,0,0,0,0,0,0,0,0,0,0,0,0],"sum_hessian":[2.1488062E3,1.1681594E3,9.806467E2,6.180957E2,5.500637E2,2.0623077E2,7.7441595E2,3.98251E2,2.1984468E2,3.872153E1,5.1134216E2,1.4615594E2,6.0074833E1,3.2597372E2,4.4844223E2],"tree_param":{"num_deleted":"0","num_feature":"39","num_nodes":"15","size_leaf_vector":"1"}},{"base_weights":[-4.6090892E-1,-9.6476234E-2,-9.260377E-1,3.617081E-2,-5.2413124E-1,-7.511402E-1,-1.0342802E0,7.606322E-2,-2.3309402E-2,-1.8211612E-2,-1.2422549E-1,-8.571926E-2,-1.6426922E-1,-1.803149E-1,-2.0544653E-1],"categories":[],"categories_nodes":[],"categories_segments":[],"categories_sizes":[],"default_left":[0,0,0,0,0,0,0,0,0,0,0,0,0,0,0],"id":3,"left_children":[1,3,5,7,9,11,13,-1,-1,-1,-1,-1,-1,-1,-1],"loss_changes":[3.414545E2,6.4076035E1,1.6752747E1,4.941293E1,1.4496902E1,1.1160706E1,2.048767E0,0E0,0E0,0E0,0E0,0E0,0E0,0E0,0E0],"parents":[2147483647,0,0,1,1,2,2,3,3,4,4,5,5,6,6],"right_children":[2,4,6,8,10,12,14,-1,-1,-1,-1,-1,-1,-1,-1],"split_conditions":[3.2280025E1,4.270939E1,4.6227695E1,5E0,9.899495E0,6E0,6.2625874E1,7.606322E-2,-2.3309402E-2,-1.8211612E-2,-1.2422549E-1,-8.571926E-2,-1.6426922E-1,-1.803149E-1,-2.0544653E-1],"split_indices":[5,6,5,10,5,10,5,0,0,0,0,0,0,0,0],"split_type":[0,0,0,0,0,0,0,0,0,0,0,0,0,0,0],"sum_hessian":[2.0143821E3,1.1294532E3,8.849289E2,8.6205743E2,2.673958E2,3.3831546E2,5.466134E2,2.621307E2,5.9992676E2,6.0910366E1,2.0648544E2,8.9785736E1,2.4852972E2,1.7311507E2,3.7349835E2],"tree_param":{"num_deleted":"0","num_feature":"39","num_nodes":"15","size_leaf_vector":"1"}},{"base_weights":[-3.7936112E-1,4.4269636E-2,-7.4464476E-1,3.449108E-1,-4.33223E-2,-9.010562E-1,-4.11328E-1,7.40313E-2,-7.155938E-2,-1.8232405E-2,9.342848E-2,-1.482856E-1,-1.985902E-1,-6.663509E-2,-1.1351873E-1],"categories":[],"categories_nodes":[],"categories_segments":[],"categories_sizes":[],"default_left":[0,0,0,0,0,0,0,0,0,0,0,0,0,0,0],"id":4,"left_children":[1,3,5,7,9,11,13,-1,-1,-1,-1,-1,-1,-1,-1],"loss_changes":[2.8971198E2,2.283083E1,5.2410645E1,6.028084E0,1.8652517E1,1.1836609E1,3.667797E0,0E0,0E0,0E0,0E0,0E0,0E0,0E0,0E0],"parents":[2147483647,0,0,1,1,2,2,3,3,4,4,5,5,6,6],"right_children":[2,4,6,8,10,12,14,-1,-1,-1,-1,-1,-1,-1,-1],"split_conditions":[2.4698177E1,9.899495E0,1E0,1E0,1E0,6.0373837E1,1E0,7.40313E-2,-7.155938E-2,-1.8232405E-2,9.342848E-2,-1.482856E-1,-1.985902E-1,-6.663509E-2,-1.1351873E-1],"split_indices":[5,5,3,34,32,5,24,0,0,0,0,0,0,0,0],"split_type":[0,0,0,0,0,0,0,0,0,0,0,0,0,0,0],"sum_hessian":[1.872148E3,8.668383E2,1.0053096E3,1.9558305E2,6.7125525E2,6.84222E2,3.2108762E2,1.8460858E2,1.0974471E1,6.1138477E2,5.9870506E1,3.6099826E2,3.2322372E2,2.3956963E2,8.1517975E1],"tree_param":{"num_deleted":"0","num_feature":"39","num_nodes":"15","size_leaf_vector":"1"}},{"base_weights":[-3.5794297E-1,-3.958036E-2,-7.595813E-1,2.5038436E-1,-1.9682765E-1,-5.695686E-1,-9.7666514E-1,1.3934757E-1,1.612971E-2,1.4098719E-2,-7.218708E-2,-8.593918E-2,-1.5008186E-1,-1.5902615E-1,-1.9591105E-1],"categories":[],"categories_nodes":[],"categories_segments":[],"categories_sizes":[],"default_left":[0,0,0,0,0,0,0,0,0,0,0,0,0,0,0],"id":5,"left_children":[1,3,5,7,9,11,13,-1,-1,-1,-1,-1,-1,-1,-1],"loss_changes":[2.2342032E2,4.4445293E1,3.1868652E1,2.7259676E1,3.1003267E1,1.065535E1,2.559143E0,0E0,0E0,0E0,0E0,0E0,0E0,0E0,0E0],"parents":[2147483647,0,0,1,1,2,2,3,3,4,4,5,5,6,6],"right_children":[2,4,6,8,10,12,14,-1,-1,-1,-1,-1,-1,-1,-1],"split_conditions":[2.8301943E1,1.5376251E1,4.8548943E1,4E0,1.3E1,3.6158184E1,6.0373837E1,1.3934757E-1,1.612971E-2,1.4098719E-2,-7.218708E-2,-8.593918E-2,-1.5008186E-1,-1.5902615E-1,-1.9591105E-1],"split_indices":[5,6,5,10,5,6,5,0,0,0,0,0,0,0,0],"split_type":[0,0,0,0,0,0,0,0,0,0,0,0,0,0,0],"sum_hessian":[1.7472897E3,9.746964E2,7.7259326E2,3.4271127E2,6.319851E2,4.1199384E2,3.6059943E2,8.810553E1,2.5460573E2,2.5344421E2,3.7854092E2,2.6545633E2,1.4653749E2,9.214889E1,2.6845053E2],"tree_param":{"num_deleted":"0","num_feature":"39","num_nodes":"15","size_leaf_vector":"1"}},{"base_weights":[-2.9907808E-1,-5.330692E-1,1.3176818E-1,-7.7853745E-1,-2.6793003E-1,2.1226235E-1,-1.3234973E-1,-1.5176763E-1,4.7491305E-2,-4.200507E-2,-1.4592549E-1,3.3565745E-2,1.5306124E-1,-1.4111553E-2,-1.3008212E-1],"categories":[],"categories_nodes":[],"categories_segments":[],"categories_sizes":[],"default_left":[0,0,0,0,0,0,0,0,0,0,0,0,0,0,0],"id":6,"left_children":[1,3,5,7,9,11,13,-1,-1,-1,-1,-1,-1,-1,-1],"loss_changes":[1.6852663E2,7.050397E1,1.2509613E1,9.419739E0,1.2393356E1,9.694551E0,4.4101E0,0E0,0E0,0E0,0E0,0E0,0E0,0E0,0E0],"parents":[2147483647,0,0,1,1,2,2,3,3,4,4,5,5,6,6],"right_children":[2,4,6,8,10,12,14,-1,-1,-1,-1,-1,-1,-1,-1],"split_conditions":[1E0,1E0,3.1184975E1,1E0,1E0,1E0,6.716634E1,-1.5176763E-1,4.7491305E-2,-4.200507E-2,-1.4592549E-1,3.3565745E-2,1.5306124E-1,-1.4111553E-2,-1.3008212E-1],"split_indices":[4,3,6,7,25,8,6,0,0,0,0,0,0,0,0],"split_type":[0,0,0,0,0,0,0,0,0,0,0,0,0,0,0],"sum_hessian":[1.6716132E3,1.0832905E3,5.883226E2,5.6250446E2,5.2078613E2,4.509137E2,1.3740887E2,5.5372473E2,8.779712E0,4.7491733E2,4.5868797E1,4.2464023E2,2.6273443E1,1.24192406E2,1.321646E1],"tree_param":{"num_deleted":"0","num_feature":"39","num_nodes":"15","size_leaf_vector":"1"}},{"base_weights":[-2.6151094E-1,-4.0281948E-2,-7.5046116E-1,1.3550064E-1,-2.1749768E-1,-5.9064806E-1,-9.9795836E-1,8.752481E-2,1.1270308E-2,-2.8660895E-2,-1.19595475E-1,-8.0872275E-2,-1.3445486E-1,-1.9415592E-1,-1.4109287E-1],"categories":[],"categories_nodes":[],"categories_segments":[],"categories_sizes":[],"default_left":[0,0,0,0,0,0,0,0,0,0,0,0,0,0,0],"id":7,"left_children":[1,3,5,7,9,11,13,-1,-1,-1,-1,-1,-1,-1,-1],"loss_changes":[1.7053073E2,3.3814613E1,1.942456E1,1.3455879E1,1.4894697E1,5.6604233E0,9.4081116E-1,0E0,0E0,0E0,0E0,0E0,0E0,0E0,0E0],"parents":[2147483647,0,0,1,1,2,2,3,3,4,4,5,5,6,6],"right_children":[2,4,6,8,10,12,14,-1,-1,-1,-1,-1,-1,-1,-1],"split_conditions":[3.342155E1,8E0,6.2625874E1,9.433981E0,5.1519802E1,8E0,1E0,8.752481E-2,1.1270308E-2,-2.8660895E-2,-1.19595475E-1,-8.0872275E-2,-1.3445486E-1,-1.9415592E-1,-1.4109287E-1],"split_indices":[5,10,5,5,6,10,16,0,0,0,0,0,0,0,0],"split_type":[0,0,0,0,0,0,0,0,0,0,0,0,0,0,0],"sum_hessian":[1.5764972E3,1.0854055E3,4.910917E2,5.448953E2,5.4051013E2,2.9841522E2,1.9267648E2,1.0433692E2,4.4055844E2,4.6402686E2,7.648325E1,1.2072579E2,1.7768944E2,1.7958087E2,1.3095618E1],"tree_param":{"num_deleted":"0","num_feature":"39","num_nodes":"15","size_leaf_vector":"1"}},{"base_weights":[-1.8615487E-1,2.022005E-2,-6.808637E-1,2.222562E-1,-1.1822067E-1,-5.116985E-1,-9.864145E-1,2.5847304E-1,3.491838E-2,-1.1747677E-2,-1.2679826E-1,-5.8443498E-2,-1.254958E-1,-1.9182587E-1,-3.6222696E-2],"categories":[],"categories_nodes":[],"categories_segments":[],"categories_sizes":[],"default_left":[0,0,0,0,0,0,0,0,0,0,0,0,0,0,0],"id":8,"left_children":[1,3,5,7,9,11,13,-1,-1,-1,-1,-1,-1,-1,-1],"loss_changes":[1.5422032E2,2.981457E1,2.2983398E1,1.9315325E1,1.9574501E1,8.564835E0,2.2956238E0,0E0,0E0,0E0,0E0,0E0,0E0,0E0,0E0],"parents":[2147483647,0,0,1,1,2,2,3,3,4,4,5,5,6,6],"right_children":[2,4,6,8,10,12,14,-1,-1,-1,-1,-1,-1,-1,-1],"split_conditions":[3.289377E1,6E0,6.400781E1,1E0,5.7994617E1,8E0,1.3009612E2,2.5847304E-1,3.491838E-2,-1.1747677E-2,-1.2679826E-1,-5.8443498E-2,-1.254958E-1,-1.9182587E-1,-3.6222696E-2],"split_indices":[5,10,5,10,6,10,11,0,0,0,0,0,0,0,0],"split_type":[0,0,0,0,0,0,0,0,0,0,0,0,0,0,0],"sum_hessian":[1.5104874E3,1.0658464E3,4.446409E2,4.3339313E2,6.3245337E2,2.8620093E2,1.5843996E2,1.4575151E1,4.1881796E2,5.7294867E2,5.9504684E1,1.18629944E2,1.6757098E2,1.5489497E2,3.544982E0],"tree_param":{"num_deleted":"0","num_feature":"39","num_nodes":"15","size_leaf_vector":"1"}},{"base_weights":[-1.9722204E-1,-3.82935E-1,7.7455565E-2,-6.7020917E-1,-1.5075606E-1,2.1041304E-2,3.6175433E-1,-1.3217743E-1,7.6102756E-2,-1.998105E-2,-1.3521439E-1,-2.686582E-3,1.16565585E-1,7.623558E-2,-1.6329542E-1],"categories":[],"categories_nodes":[],"categories_segments":[],"categories_sizes":[],"default_left":[0,0,0,0,0,0,0,0,0,0,0,0,0,0,0],"id":9,"left_children":[1,3,5,7,9,11,13,-1,-1,-1,-1,-1,-1,-1,-1],"loss_changes":[7.4482376E1,5.8102036E1,9.446758E0,9.169815E0,1.2384076E1,1.0177654E1,4.455271E0,0E0,0E0,0E0,0E0,0E0,0E0,0E0,0E0],"parents":[2147483647,0,0,1,1,2,2,3,3,4,4,5,5,6,6],"right_children":[2,4,6,8,10,12,14,-1,-1,-1,-1,-1,-1,-1,-1],"split_conditions":[1E0,1E0,2E0,1E0,1E0,1E0,5.9420773E1,-1.3217743E-1,7.6102756E-2,-1.998105E-2,-1.3521439E-1,-2.686582E-3,1.16565585E-1,7.623558E-2,-1.6329542E-1],"split_indices":[4,3,2,7,25,8,6,0,0,0,0,0,0,0,0],"split_type":[0,0,0,0,0,0,0,0,0,0,0,0,0,0,0],"sum_hessian":[1.4600565E3,8.7110516E2,5.8895135E2,3.893489E2,4.817563E2,4.914456E2,9.7505745E1,3.8149045E2,7.858464E0,4.4495245E2,3.6803825E1,4.6381082E2,2.7634766E1,9.459368E1,2.9120674E0],"tree_param":{"num_deleted":"0","num_feature":"39","num_nodes":"15","size_leaf_vector":"1"}},{"base_weights":[-1.5242833E-1,-3.0164367E-1,5.241696E-2,-6.0126257E-1,-8.296627E-2,1.3279946E0,3.0683778E-2,-1.4157124E-1,-7.014391E-2,-3.2062262E-2,7.931613E-2,3.370308E-1,-1.5521583E-2,1.707063E-3,7.856478E-2],"categories":[],"categories_nodes":[],"categories_segments":[],"categories_sizes":[],"default_left":[0,0,0,0,0,0,0,0,0,0,0,0,0,0,0],"id":10,"left_children":[1,3,5,7,9,11,13,-1,-1,-1,-1,-1,-1,-1,-1],"loss_changes":[4.279693E1,5.307351E1,1.6361837E1,1.1204758E1,1.9827255E1,6.097204E0,4.804646E0,0E0,0E0,0E0,0E0,0E0,0E0,0E0,0E0],"parents":[2147483647,0,0,1,1,2,2,3,3,4,4,5,5,6,6],"right_children":[2,4,6,8,10,12,14,-1,-1,-1,-1,-1,-1,-1,-1],"split_conditions":[1E0,1E0,1E0,1.0280078E2,1E0,2.5179358E1,1E0,-1.4157124E-1,-7.014391E-2,-3.2062262E-2,7.931613E-2,3.370308E-1,-1.5521583E-2,1.707063E-3,7.856478E-2],"split_indices":[4,3,10,11,32,11,32,0,0,0,0,0,0,0,0],"split_type":[0,0,0,0,0,0,0,0,0,0,0,0,0,0,0],"sum_hessian":[1.400065E3,8.100321E2,5.900328E2,3.417581E2,4.6827405E2,9.881606E0,5.801512E2,2.1368858E2,1.2806949E2,4.0008408E2,6.8189964E1,7.5443835E0,2.3372228E0,5.488213E2,3.1329893E1],"tree_param":{"num_deleted":"0","num_feature":"39","num_nodes":"15","size_leaf_vector":"1"}},{"base_weights":[-1.3742936E-1,-3.159813E-1,9.4390064E-2,-5.9667856E-1,-1.2667854E-1,1.5925948E-1,-8.900046E-2,-1.1756165E-1,5.1584627E-2,1.7944673E-2,-4.6499386E-2,6.310143E-2,5.466692E-3,4.838128E-2,-3.284965E-2],"categories":[],"categories_nodes":[],"categories_segments":[],"categories_sizes":[],"default_left":[0,0,0,0,0,0,0,0,0,0,0,0,0,0,0],"id":11,"left_children":[1,3,5,7,9,11,13,-1,-1,-1,-1,-1,-1,-1,-1],"loss_changes":[5.7213966E1,4.14899E1,7.1556673E0,5.185997E0,1.2025526E1,9.936119E0,4.4693556E0,0E0,0E0,0E0,0E0,0E0,0E0,0E0,0E0],"parents":[2147483647,0,0,1,1,2,2,3,3,4,4,5,5,6,6],"right_children":[2,4,6,8,10,12,14,-1,-1,-1,-1,-1,-1,-1,-1],"split_conditions":[1E0,1E0,8.85E2,1E0,6E0,1.4534455E1,3E0,-1.1756165E-1,5.1584627E-2,1.7944673E-2,-4.6499386E-2,6.310143E-2,5.466692E-3,4.838128E-2,-3.284965E-2],"split_indices":[4,3,1,13,10,6,10,0,0,0,0,0,0,0,0],"split_type":[0,0,0,0,0,0,0,0,0,0,0,0,0,0,0],"sum_hessian":[1.3821835E3,7.808068E2,6.0137665E2,3.144789E2,4.6632788E2,4.4425433E2,1.5712231E2,3.077341E2,6.744813E0,1.6143497E2,3.048929E2,1.92249E2,2.5200536E2,3.0660158E1,1.2646215E2],"tree_param":{"num_deleted":"0","num_feature":"39","num_nodes":"15","size_leaf_vector":"1"}},{"base_weights":[-1.31276E-1,-7.0035025E-2,-9.182391E-1,1.0156433E-1,-1.7810611E-1,-9.657432E-1,-2.84444E-1,-7.633418E-2,2.5389282E-2,2.5336664E-2,-4.4868916E-2,-1.9261533E-1,-1.1060293E-1,-1.9491811E-1,1.2648587E-1],"categories":[],"categories_nodes":[],"categories_segments":[],"categories_sizes":[],"default_left":[0,0,0,0,0,0,0,0,0,0,0,0,0,0,0],"id":12,"left_children":[1,3,5,7,9,11,13,-1,-1,-1,-1,-1,-1,-1,-1],"loss_changes":[6.4879585E1,2.3163769E1,2.9239197E0,7.6004376E0,1.3549433E1,1.5017395E0,4.740739E0,0E0,0E0,0E0,0E0,0E0,0E0,0E0,0E0],"parents":[2147483647,0,0,1,1,2,2,3,3,4,4,5,5,6,6],"right_children":[2,4,6,8,10,12,14,-1,-1,-1,-1,-1,-1,-1,-1],"split_conditions":[6.0373837E1,1.710273E1,1E0,-2E0,9.433981E0,3.5E1,5.3009434E1,-7.633418E-2,2.5389282E-2,2.5336664E-2,-4.4868916E-2,-1.9261533E-1,-1.1060293E-1,-1.9491811E-1,1.2648587E-1],"split_indices":[5,6,16,2,5,10,11,0,0,0,0,0,0,0,0],"split_type":[0,0,0,0,0,0,0,0,0,0,0,0,0,0,0],"sum_hessian":[1.3461498E3,1.2489612E3,9.718857E1,4.8261383E2,7.663474E2,9.040649E1,6.7820845E0,2.8441517E1,4.541723E2,1.18543686E2,6.478037E2,8.1343575E1,9.062911E0,3.8173497E0,2.9647348E0],"tree_param":{"num_deleted":"0","num_feature":"39","num_nodes":"15","size_leaf_vector":"1"}},{"base_weights":[-1.013112E-1,-2.2143337E-1,3.9435163E-2,-4.5773986E-1,-8.134065E-2,-1.1315728E-1,9.857149E-2,-1.049435E-2,-1.0105605E-1,5.9474148E-2,-2.5101237E-2,3.8400285E-2,-9.516738E-2,4.2851806E-2,-1.6110669E-3],"categories":[],"categories_nodes":[],"categories_segments":[],"categories_sizes":[],"default_left":[0,0,0,0,0,0,0,0,0,0,0,0,0,0,0],"id":13,"left_children":[1,3,5,7,9,11,13,-1,-1,-1,-1,-1,-1,-1,-1],"loss_changes":[2.1941467E1,2.3178772E1,5.3932014E0,7.5039215E0,8.656089E0,2.0209064E1,5.8015203E0,0E0,0E0,0E0,0E0,0E0,0E0,0E0,0E0],"parents":[2147483647,0,0,1,1,2,2,3,3,4,4,5,5,6,6],"right_children":[2,4,6,8,10,12,14,-1,-1,-1,-1,-1,-1,-1,-1],"split_conditions":[1E0,1E0,4.356604E1,4E0,3E0,3E0,8E0,-1.049435E-2,-1.0105605E-1,5.9474148E-2,-2.5101237E-2,3.8400285E-2,-9.516738E-2,4.2851806E-2,-1.6110669E-3],"split_indices":[4,3,11,10,10,10,10,0,0,0,0,0,0,0,0],"split_type":[0,0,0,0,0,0,0,0,0,0,0,0,0,0,0],"sum_hessian":[1.2976808E3,7.00152E2,5.975288E2,2.6058084E2,4.3957114E2,1.6687332E2,4.306555E2,3.929531E1,2.2128554E2,4.972951E1,3.898416E2,9.189809E1,7.4975235E1,1.9792091E2,2.3273457E2],"tree_param":{"num_deleted":"0","num_feature":"39","num_nodes":"15","size_leaf_vector":"1"}},{"base_weights":[-5.690345E-2,-7.1157394E-3,-9.0411115E-1,2.1745422E-1,-5.4973267E-2,-6.4040804E-1,-9.6428263E-1,6.703755E-2,-1.1475896E-2,-1.924575E-2,5.4153122E-2,6.102841E-2,-1.5956211E-1,-1.9028215E-1,-1.3065076E-1],"categories":[],"categories_nodes":[],"categories_segments":[],"categories_sizes":[],"default_left":[0,0,0,0,0,0,0,0,0,0,0,0,0,0,0],"id":14,"left_children":[1,3,5,7,9,11,13,-1,-1,-1,-1,-1,-1,-1,-1],"loss_changes":[5.4294582E1,1.3066814E1,1.1327591E0,7.9230986E0,1.5548798E1,2.4957519E0,5.243759E-1,0E0,0E0,0E0,0E0,0E0,0E0,0E0,0E0],"parents":[2147483647,0,0,1,1,2,2,3,3,4,4,5,5,6,6],"right_children":[2,4,6,8,10,12,14,-1,-1,-1,-1,-1,-1,-1,-1],"split_conditions":[6.400781E1,9.899495E0,5E0,3.7303947E1,1E0,3.270488E0,4E1,6.703755E-2,-1.1475896E-2,-1.924575E-2,5.4153122E-2,6.102841E-2,-1.5956211E-1,-1.9028215E-1,-1.3065076E-1],"split_indices":[5,5,10,6,32,6,10,0,0,0,0,0,0,0,0],"split_type":[0,0,0,0,0,0,0,0,0,0,0,0,0,0,0],"sum_hessian":[1.2871238E3,1.2156863E3,7.143758E1,2.135466E2,1.00213965E3,1.3283798E1,5.8153778E1,1.4415497E2,6.9391624E1,8.8269653E2,1.19443115E2,2.2417474E0,1.1042051E1,5.2135147E1,6.018632E0],"tree_param":{"num_deleted":"0","num_feature":"39","num_nodes":"15","size_leaf_vector":"1"}},{"base_weights":[-9.284353E-2,-3.9078977E-2,-7.492371E-1,-1.761231E-2,-3.6617994E-1,-7.8535837E-1,1.6795199E-1,1.0294105E-1,-7.461368E-3,-2.4794016E-2,-1.0477315E-1,-1.6305734E-1,-2.5713677E-2],"categories":[],"categories_nodes":[],"categories_segments":[],"categories_sizes":[],"default_left":[0,0,0,0,0,0,0,0,0,0,0,0,0],"id":15,"left_children":[1,3,5,7,9,11,-1,-1,-1,-1,-1,-1,-1],"loss_changes":[4.505196E1,8.286085E0,5.692295E0,1.3233582E1,3.133935E0,4.2179947E0,0E0,0E0,0E0,0E0,0E0,0E0,0E0],"parents":[2147483647,0,0,1,1,2,2,3,3,4,4,5,5],"right_children":[2,4,6,8,10,12,-1,-1,-1,-1,-1,-1,-1],"split_conditions":[4.9517673E1,5.8671307E1,1E0,7.071068E0,5.39E2,1E0,1.6795199E-1,1.0294105E-1,-7.461368E-3,-2.4794016E-2,-1.0477315E-1,-1.6305734E-1,-2.5713677E-2],"split_indices":[5,6,13,5,1,16,0,0,0,0,0,0,0],"split_type":[0,0,0,0,0,0,0,0,0,0,0,0,0],"sum_hessian":[1.2765308E3,1.1798927E3,9.6638115E1,1.1072394E3,7.26533E1,9.454381E1,2.094305E0,4.109704E1,1.0661423E3,3.1670187E1,4.098311E1,8.552176E1,9.022045E0],"tree_param":{"num_deleted":"0","num_feature":"39","num_nodes":"13","size_leaf_vector":"1"}},{"base_weights":[-6.3358136E-2,6.817327E-2,-1.542734E-1,-1.8387778E-2,2.6667252E-1,-2.624439E-1,-1.3000006E-2,-8.207186E-3,1.175181E-1,1.3541035E-2,7.9914875E-2,-6.1589886E-2,1.676605E-2,3.595318E-2,-2.43151E-2],"categories":[],"categories_nodes":[],"categories_segments":[],"categories_sizes":[],"default_left":[0,0,0,0,0,0,0,0,0,0,0,0,0,0,0],"id":16,"left_children":[1,3,5,7,9,11,13,-1,-1,-1,-1,-1,-1,-1,-1],"loss_changes":[1.4876141E1,8.737464E0,1.1239767E1,5.521005E0,4.5890903E0,8.772192E0,7.3435464E0,0E0,0E0,0E0,0E0,0E0,0E0,0E0,0E0],"parents":[2147483647,0,0,1,1,2,2,3,3,4,4,5,5,6,6],"right_children":[2,4,6,8,10,12,14,-1,-1,-1,-1,-1,-1,-1,-1],"split_conditions":[6E0,1E0,1E0,1E0,5.25E2,1E0,4.49E2,-8.207186E-3,1.175181E-1,1.3541035E-2,7.9914875E-2,-6.1589886E-2,1.676605E-2,3.595318E-2,-2.43151E-2],"split_indices":[10,21,4,14,1,32,1,0,0,0,0,0,0,0,0],"split_type":[0,0,0,0,0,0,0,0,0,0,0,0,0,0,0],"sum_hessian":[1.2438827E3,5.0836523E2,7.3551746E2,3.5398245E2,1.5438278E2,4.165477E2,3.1896976E2,3.40766E2,1.3216435E1,6.74535E1,8.692928E1,3.555384E2,6.100931E1,1.155383E2,2.0343146E2],"tree_param":{"num_deleted":"0","num_feature":"39","num_nodes":"15","size_leaf_vector":"1"}},{"base_weights":[-5.271634E-2,6.8809994E-4,-2.6083174E-1,-1.6623025E-1,7.3835365E-2,-3.7573808E-1,1.9408299E-1,-5.8563266E-2,2.0276057E-2,3.259697E-1,1.3141474E-2,-5.4510653E-2,-1.3121346E-1,2.2934304E-1,-2.4301237E-4],"categories":[],"categories_nodes":[],"categories_segments":[],"categories_sizes":[],"default_left":[0,0,0,0,0,0,0,0,0,0,0,0,0,0,0],"id":17,"left_children":[1,3,5,7,9,11,13,-1,-1,-1,-1,-1,-1,-1,-1],"loss_changes":[1.3808914E1,1.2071057E1,1.3263794E1,1.1528498E1,5.632105E0,5.694168E0,1.0074744E1,0E0,0E0,0E0,0E0,0E0,0E0,0E0,0E0],"parents":[2147483647,0,0,1,1,2,2,3,3,4,4,5,5,6,6],"right_children":[2,4,6,8,10,12,14,-1,-1,-1,-1,-1,-1,-1,-1],"split_conditions":[1E0,5.3009434E1,1.487582E2,1E0,5.375872E1,3.499202E1,8.438378E0,-5.8563266E-2,2.0276057E-2,3.259697E-1,1.3141474E-2,-5.4510653E-2,-1.3121346E-1,2.2934304E-1,-2.4301237E-4],"split_indices":[24,11,11,7,11,6,6,0,0,0,0,0,0,0,0],"split_type":[0,0,0,0,0,0,0,0,0,0,0,0,0,0,0],"sum_hessian":[1.2422168E3,9.885318E2,2.5368503E2,3.0118692E2,6.8734485E2,2.0253522E2,5.114982E1,1.9872604E2,1.0246087E2,2.100129E0,6.8524475E2,1.5703818E2,4.549703E1,8.3136635E0,4.2836155E1],"tree_param":{"num_deleted":"0","num_feature":"39","num_nodes":"15","size_leaf_vector":"1"}},{"base_weights":[-3.9913878E-2,-5.4508336E-3,-8.684406E-1,3.8243424E-2,-1.9970696E-1,-9.4345486E-1,-1.0736346E-1,-2.43742E-2,2.0342613E-2,-5.1996823E-2,4.1085128E-2,-1.882991E-1,-8.795226E-2,-1.9316554E-1,1.8606785E-1],"categories":[],"categories_nodes":[],"categories_segments":[],"categories_sizes":[],"default_left":[0,0,0,0,0,0,0,0,0,0,0,0,0,0,0],"id":18,"left_children":[1,3,5,7,9,11,13,-1,-1,-1,-1,-1,-1,-1,-1],"loss_changes":[3.509155E1,1.0016348E1,2.7988815E0,1.091345E1,6.5289917E0,9.19117E-1,4.3256526E0,0E0,0E0,0E0,0E0,0E0,0E0,0E0,0E0],"parents":[2147483647,0,0,1,1,2,2,3,3,4,4,5,5,6,6],"right_children":[2,4,6,8,10,12,14,-1,-1,-1,-1,-1,-1,-1,-1],"split_conditions":[6.400781E1,1E0,1E0,5.3009434E1,4.3E1,4E1,5.3009434E1,-2.43742E-2,2.0342613E-2,-5.1996823E-2,4.1085128E-2,-1.882991E-1,-8.795226E-2,-1.9316554E-1,1.8606785E-1],"split_indices":[5,24,16,11,10,10,11,0,0,0,0,0,0,0,0],"split_type":[0,0,0,0,0,0,0,0,0,0,0,0,0,0,0],"sum_hessian":[1.228868E3,1.1797982E3,4.9069824E1,9.6313885E2,2.1665941E2,4.4662754E1,4.407068E0,2.8085406E2,6.822848E2,1.8439659E2,3.226281E1,4.1026787E1,3.635968E0,2.402428E0,2.0046399E0],"tree_param":{"num_deleted":"0","num_feature":"39","num_nodes":"15","size_leaf_vector":"1"}},{"base_weights":[-3.928348E-2,-1.3287329E-2,-8.094927E-1,8.5359335E-2,-1.2443429E-1,-8.9651734E-1,-9.160586E-2,4.345364E-2,1.4694652E-3,-1.2241746E-2,-5.9764083E-2,-1.8036284E-1,-1.05601564E-1,1.3911375E-1,-1.9419517E-1],"categories":[],"categories_nodes":[],"categories_segments":[],"categories_sizes":[],"default_left":[0,0,0,0,0,0,0,0,0,0,0,0,0,0,0],"id":19,"left_children":[1,3,5,7,9,11,13,-1,-1,-1,-1,-1,-1,-1,-1],"loss_changes":[2.4499632E1,1.2978123E1,2.4929142E0,6.9254274E0,6.330559E0,5.869942E-1,3.2947948E0,0E0,0E0,0E0,0E0,0E0,0E0,0E0,0E0],"parents":[2147483647,0,0,1,1,2,2,3,3,4,4,5,5,6,6],"right_children":[2,4,6,8,10,12,14,-1,-1,-1,-1,-1,-1,-1,-1],"split_conditions":[6.711929E1,8E0,1E0,1.3781597E1,9.08E2,3.5E1,6E0,4.345364E-2,1.4694652E-3,-1.2241746E-2,-5.9764083E-2,-1.8036284E-1,-1.05601564E-1,1.3911375E-1,-1.9419517E-1],"split_indices":[5,10,16,6,1,10,10,0,0,0,0,0,0,0,0],"split_type":[0,0,0,0,0,0,0,0,0,0,0,0,0,0,0],"sum_hessian":[1.2234662E3,1.1835247E3,3.9941498E1,6.270038E2,5.5652094E2,3.561845E1,4.323048E0,2.2144786E2,4.0555594E2,4.2165073E2,1.348702E2,3.1235592E1,4.3828583E0,2.2897E0,2.033348E0],"tree_param":{"num_deleted":"0","num_feature":"39","num_nodes":"15","size_leaf_vector":"1"}},{"base_weights":[-6.1400898E-2,-3.900064E-2,-7.8575855E-1,1.6559233E-1,-8.031581E-2,-8.798952E-1,-1.3292408E-1,2.4932908E-1,2.6824124E-2,-6.948686E-3,-5.2173425E-2,-1.9233526E-1,-6.607408E-2,-1.9342732E-1,1.8507977E-1],"categories":[],"categories_nodes":[],"categories_segments":[],"categories_sizes":[],"default_left":[0,0,0,0,0,0,0,0,0,0,0,0,0,0,0],"id":20,"left_children":[1,3,5,7,9,11,13,-1,-1,-1,-1,-1,-1,-1,-1],"loss_changes":[1.9406647E1,9.806534E0,2.202137E0,5.5835657E0,8.179171E0,2.130066E0,4.4037895E0,0E0,0E0,0E0,0E0,0E0,0E0,0E0,0E0],"parents":[2147483647,0,0,1,1,2,2,3,3,4,4,5,5,6,6],"right_children":[2,4,6,8,10,12,14,-1,-1,-1,-1,-1,-1,-1,-1],"split_conditions":[6.400781E1,9.433981E0,1E0,-3E0,1E0,2.7E1,5.9405388E1,2.4932908E-1,2.6824124E-2,-6.948686E-3,-5.2173425E-2,-1.9233526E-1,-6.607408E-2,-1.9342732E-1,1.8507977E-1],"split_indices":[5,5,16,2,24,10,11,0,0,0,0,0,0,0,0],"split_type":[0,0,0,0,0,0,0,0,0,0,0,0,0,0,0],"sum_hessian":[1.1958734E3,1.1600062E3,3.5867176E1,1.9487798E2,9.651283E2,3.1341974E1,4.5251994E0,4.1960163E0,1.9068196E2,7.861585E2,1.7896979E2,2.5297928E1,6.044048E0,2.5180442E0,2.0071552E0],"tree_param":{"num_deleted":"0","num_feature":"39","num_nodes":"15","size_leaf_vector":"1"}},{"base_weights":[-4.6697028E-2,-2.9883409E-2,-6.4201343E-1,6.1778907E-2,-8.8348456E-2,-7.4773747E-1,1.8167385E-1,1.7542178E-2,-9.321426E-2,-4.5456618E-2,-2.4368854E-3,-8.372572E-2,-1.6641942E-1],"categories":[],"categories_nodes":[],"categories_segments":[],"categories_sizes":[],"default_left":[0,0,0,0,0,0,0,0,0,0,0,0,0],"id":21,"left_children":[1,3,5,7,9,11,-1,-1,-1,-1,-1,-1,-1],"loss_changes":[1.1929964E1,6.211759E0,5.520417E0,7.4712887E0,8.008053E0,1.1746063E0,0E0,0E0,0E0,0E0,0E0,0E0,0E0],"parents":[2147483647,0,0,1,1,2,2,3,3,4,4,5,5],"right_children":[2,4,6,8,10,12,-1,-1,-1,-1,-1,-1,-1],"split_conditions":[6.1294373E1,1.6313852E1,1.1661904E2,3.8948685E1,8.852683E1,7.8533134E0,1.8167385E-1,1.7542178E-2,-9.321426E-2,-4.5456618E-2,-2.4368854E-3,-8.372572E-2,-1.6641942E-1],"split_indices":[5,6,11,5,11,6,0,0,0,0,0,0,0],"split_type":[0,0,0,0,0,0,0,0,0,0,0,0,0],"sum_hessian":[1.191655E3,1.1589296E3,3.2725494E1,4.5130408E2,7.076255E2,3.0691532E1,2.0339622E0,4.278974E2,2.3406677E1,2.3738354E2,4.7024194E2,8.784197E0,2.1907335E1],"tree_param":{"num_deleted":"0","num_feature":"39","num_nodes":"13","size_leaf_vector":"1"}},{"base_weights":[-1.6833652E-2,4.7148555E-4,-7.0158994E-1,6.0258E-2,-1.443659E-1,5.492426E-2,-7.862695E-1,1.3799345E-1,9.398699E-3,-1.9320484E-2,-9.621854E-2,-5.3773236E-2,-1.6739736E-1],"categories":[],"categories_nodes":[],"categories_segments":[],"categories_sizes":[],"default_left":[0,0,0,0,0,0,0,0,0,0,0,0,0],"id":22,"left_children":[1,3,5,7,9,-1,11,-1,-1,-1,-1,-1,-1],"loss_changes":[1.4122169E1,1.0061095E1,2.4645386E0,6.0138845E0,5.2708573E0,0E0,1.2328568E0,0E0,0E0,0E0,0E0,0E0,0E0],"parents":[2147483647,0,0,1,1,2,2,3,3,4,4,6,6],"right_children":[2,4,6,8,10,-1,12,-1,-1,-1,-1,-1,-1],"split_conditions":[6.1294373E1,8.5E2,1.4057492E0,1E0,3.2E1,5.492426E-2,4E0,1.3799345E-1,9.398699E-3,-1.9320484E-2,-9.621854E-2,-5.3773236E-2,-1.6739736E-1],"split_indices":[5,1,6,10,10,0,10,0,0,0,0,0,0],"split_type":[0,0,0,0,0,0,0,0,0,0,0,0,0],"sum_hessian":[1.1911038E3,1.1617389E3,2.9364939E1,8.2232324E2,3.394156E2,2.3119426E0,2.7052998E1,1.3468916E1,8.088544E2,3.030321E2,3.6383472E1,4.11694E0,2.2936056E1],"tree_param":{"num_deleted":"0","num_feature":"39","num_nodes":"13","size_leaf_vector":"1"}},{"base_weights":[1.1981725E-2,2.4669152E-2,-6.2177217E-1,-3.3076577E-2,1.3541459E-1,8.884027E-2,-7.255806E-1,-9.472627E-3,7.279126E-2,1.786205E-2,8.747791E-2,-3.415913E-2,-1.5977705E-1],"categories":[],"categories_nodes":[],"categories_segments":[],"categories_sizes":[],"default_left":[0,0,0,0,0,0,0,0,0,0,0,0,0],"id":23,"left_children":[1,3,5,7,9,-1,11,-1,-1,-1,-1,-1,-1],"loss_changes":[9.583997E0,7.4724402E0,2.643756E0,5.261123E0,5.4112124E0,0E0,1.2960176E0,0E0,0E0,0E0,0E0,0E0,0E0],"parents":[2147483647,0,0,1,1,2,2,3,3,4,4,6,6],"right_children":[2,4,6,8,10,-1,12,-1,-1,-1,-1,-1,-1],"split_conditions":[6.711929E1,1E0,1.09E2,1E0,1E0,8.884027E-2,4E0,-9.472627E-3,7.279126E-2,1.786205E-2,8.747791E-2,-3.415913E-2,-1.5977705E-1],"split_indices":[5,2,1,31,32,0,10,0,0,0,0,0,0],"split_type":[0,0,0,0,0,0,0,0,0,0,0,0,0],"sum_hessian":[1.1916191E3,1.1682377E3,2.3381561E1,7.678338E2,4.0040384E2,2.035036E0,2.1346525E1,7.3837683E2,2.9456959E1,3.5443338E2,4.5970463E1,3.6138315E0,1.7732693E1],"tree_param":{"num_deleted":"0","num_feature":"39","num_nodes":"13","size_leaf_vector":"1"}},{"base_weights":[1.0613858E-2,-2.764162E-2,2.1581657E-1,6.228969E-2,-1.01642065E-1,-2.7268478E-1,2.859678E-1,2.017576E-2,-5.4050732E-2,-1.4467081E-2,-9.116399E-2,7.4443385E-2,-1.1560467E-1,2.3466292E-1,4.656277E-2],"categories":[],"categories_nodes":[],"categories_segments":[],"categories_sizes":[],"default_left":[0,0,0,0,0,0,0,0,0,0,0,0,0,0,0],"id":24,"left_children":[1,3,5,7,9,11,13,-1,-1,-1,-1,-1,-1,-1,-1],"loss_changes":[9.344879E0,6.67661E0,6.4116125E0,6.7842817E0,5.3524494E0,5.182401E0,6.4977493E0,0E0,0E0,0E0,0E0,0E0,0E0,0E0,0E0],"parents":[2147483647,0,0,1,1,2,2,3,3,4,4,5,5,6,6],"right_children":[2,4,6,8,10,12,14,-1,-1,-1,-1,-1,-1,-1,-1],"split_conditions":[2E0,1.6E1,2.1587032E1,5.2594643E1,1E0,7.615773E0,7.2111025E0,2.017576E-2,-5.4050732E-2,-1.4467081E-2,-9.116399E-2,7.4443385E-2,-1.1560467E-1,2.3466292E-1,4.656277E-2],"split_indices":[2,5,11,6,25,11,5,0,0,0,0,0,0,0,0],"split_type":[0,0,0,0,0,0,0,0,0,0,0,0,0,0,0],"sum_hessian":[1.1900964E3,1.0030768E3,1.8701973E2,4.527759E2,5.5030084E2,2.3477718E1,1.6354202E2,4.0226617E2,5.0509743E1,5.148603E2,3.5440556E1,7.845346E0,1.5632373E1,6.9871445E0,1.5655487E2],"tree_param":{"num_deleted":"0","num_feature":"39","num_nodes":"15","size_leaf_vector":"1"}},{"base_weights":[-2.1725196E-2,-9.580698E-3,-5.690734E-1,-1.8131328E-1,2.6066404E-2,-6.74375E-1,5.8145825E-2,-7.382058E-2,-5.517991E-3,7.244501E-3,-1.3135736E-1,4.748739E-2,-1.4620118E-1],"categories":[],"categories_nodes":[],"categories_segments":[],"categories_sizes":[],"default_left":[0,0,0,0,0,0,0,0,0,0,0,0,0],"id":25,"left_children":[1,3,5,7,9,11,-1,-1,-1,-1,-1,-1,-1],"loss_changes":[7.899283E0,7.117196E0,2.376132E0,6.252108E0,8.162859E0,1.9439793E0,0E0,0E0,0E0,0E0,0E0,0E0,0E0],"parents":[2147483647,0,0,1,1,2,2,3,3,4,4,5,5],"right_children":[2,4,6,8,10,12,-1,-1,-1,-1,-1,-1,-1],"split_conditions":[1.178E3,2.4E2,1E0,9.9282425E1,6.711929E1,3.4473867E0,5.8145825E-2,-7.382058E-2,-5.517991E-3,7.244501E-3,-1.3135736E-1,4.748739E-2,-1.4620118E-1],"split_indices":[1,1,14,11,5,6,0,0,0,0,0,0,0],"split_type":[0,0,0,0,0,0,0,0,0,0,0,0,0],"sum_hessian":[1.188046E3,1.1622646E3,2.57813E1,1.9980328E2,9.624614E2,2.301181E1,2.769489E0,8.512203E1,1.1468125E2,9.467223E2,1.5739121E1,2.0675824E0,2.094423E1],"tree_param":{"num_deleted":"0","num_feature":"39","num_nodes":"13","size_leaf_vector":"1"}},{"base_weights":[3.4788703E-3,5.76131E-2,-1.4617275E-1,3.5792414E-2,3.448078E-1,-5.9031162E-2,-5.3973836E-1,-1.384246E-3,3.8796097E-2,2.4027675E-1,5.1807944E-2,-2.4587395E-2,3.7788875E-2,-1.3189368E-1,2.8413884E-2],"categories":[],"categories_nodes":[],"categories_segments":[],"categories_sizes":[],"default_left":[0,0,0,0,0,0,0,0,0,0,0,0,0,0,0],"id":26,"left_children":[1,3,5,7,9,11,13,-1,-1,-1,-1,-1,-1,-1,-1],"loss_changes":[9.479064E0,5.3851833E0,1.0659084E1,5.755094E0,4.0749927E0,4.5607843E0,5.861042E0,0E0,0E0,0E0,0E0,0E0,0E0,0E0,0E0],"parents":[2147483647,0,0,1,1,2,2,3,3,4,4,5,5,6,6],"right_children":[2,4,6,8,10,12,14,-1,-1,-1,-1,-1,-1,-1,-1],"split_conditions":[2.657066E1,1E0,3.9986885E1,1E0,1.21264175E2,1.2975746E2,1.4360014E2,-1.384246E-3,3.8796097E-2,2.4027675E-1,5.1807944E-2,-2.4587395E-2,3.7788875E-2,-1.3189368E-1,2.8413884E-2],"split_indices":[5,14,6,21,11,11,11,0,0,0,0,0,0,0,0],"split_type":[0,0,0,0,0,0,0,0,0,0,0,0,0,0,0],"sum_hessian":[1.1699252E3,8.5916156E2,3.1076358E2,7.985053E2,6.0656258E1,2.5443687E2,5.6326706E1,6.351597E2,1.6334558E2,4.5117702E0,5.614449E1,2.0013239E2,5.4304493E1,4.6199757E1,1.0126952E1],"tree_param":{"num_deleted":"0","num_feature":"39","num_nodes":"15","size_leaf_vector":"1"}},{"base_weights":[-2.0232206E-2,1.0051692E-1,-6.0604256E-2,-2.190079E-2,4.2964402E-1,-3.1531864E-1,9.667147E-4,1.0832099E-1,-1.3772579E-2,-9.4370864E-2,1.02124155E-1,-8.239093E-2,4.3145295E-2,4.424533E-3,-7.777257E-2],"categories":[],"categories_nodes":[],"categories_segments":[],"categories_sizes":[],"default_left":[0,0,0,0,0,0,0,0,0,0,0,0,0,0,0],"id":27,"left_children":[1,3,5,7,9,11,13,-1,-1,-1,-1,-1,-1,-1,-1],"loss_changes":[5.73373E0,1.1875669E1,1.3825272E1,6.358335E0,7.7690306E0,1.0793102E1,6.436404E0,0E0,0E0,0E0,0E0,0E0,0E0,0E0,0E0],"parents":[2147483647,0,0,1,1,2,2,3,3,4,4,5,5,6,6],"right_children":[2,4,6,8,10,12,14,-1,-1,-1,-1,-1,-1,-1,-1],"split_conditions":[4E0,1E0,8.202438E1,1E0,8.602325E0,2.6E1,1.135E3,1.0832099E-1,-1.3772579E-2,-9.4370864E-2,1.02124155E-1,-8.239093E-2,4.3145295E-2,4.424533E-3,-7.777257E-2],"split_indices":[10,21,11,10,5,10,1,0,0,0,0,0,0,0,0],"split_type":[0,0,0,0,0,0,0,0,0,0,0,0,0,0,0],"sum_hessian":[1.1759891E3,2.9464352E2,8.813456E2,2.1475475E2,7.988878E1,1.7158264E2,7.0976294E2,1.6863657E1,1.978911E2,8.16294E0,7.172584E1,1.4126865E2,3.0313992E1,6.731602E2,3.6602688E1],"tree_param":{"num_deleted":"0","num_feature":"39","num_nodes":"15","size_leaf_vector":"1"}},{"base_weights":[9.370489E-3,2.6606908E-2,-4.1711015E-1,5.258772E-1,1.7319849E-2,-3.2616246E-1,-1.9411492E-1,-8.2503974E-2,2.3868218E-1,1.5622767E-2,-8.476824E-3,-1.0084893E-1,3.56625E-3],"categories":[],"categories_nodes":[],"categories_segments":[],"categories_sizes":[],"default_left":[0,0,0,0,0,0,0,0,0,0,0,0,0],"id":28,"left_children":[1,3,5,7,9,11,-1,-1,-1,-1,-1,-1,-1],"loss_changes":[8.561755E0,5.191468E0,2.46777E0,1.4185227E1,4.374781E0,2.7393107E0,0E0,0E0,0E0,0E0,0E0,0E0,0E0],"parents":[2147483647,0,0,1,1,2,2,3,3,4,4,5,5],"right_children":[2,4,6,8,10,12,-1,-1,-1,-1,-1,-1,-1],"split_conditions":[4.9517673E1,1E0,1E0,1E0,1E0,2.7299572E1,-1.9411492E-1,-8.2503974E-2,2.3868218E-1,1.5622767E-2,-8.476824E-3,-1.0084893E-1,3.56625E-3],"split_indices":[5,10,21,7,9,6,0,0,0,0,0,0,0],"split_type":[0,0,0,0,0,0,0,0,0,0,0,0,0],"sum_hessian":[1.1644609E3,1.1192354E3,4.522558E1,2.0431578E1,1.0988037E3,3.9273823E1,5.9517536E0,8.793485E0,1.1638093E1,5.373097E2,5.61494E2,2.4773155E1,1.45006695E1],"tree_param":{"num_deleted":"0","num_feature":"39","num_nodes":"13","size_leaf_vector":"1"}},{"base_weights":[-1.03399325E-2,-3.7579603E-2,2.0977417E-1,-5.4519996E-2,3.2362545E-1,-7.150867E-1,2.5545457E-1,1.338164E-2,-1.6257599E-2,3.9092813E-2,4.3539235E-1,-3.745328E-2,-2.0380682E-1,3.6349222E-2,2.889373E-1],"categories":[],"categories_nodes":[],"categories_segments":[],"categories_sizes":[],"default_left":[0,0,0,0,0,0,0,0,0,0,0,0,0,0,0],"id":29,"left_children":[1,3,5,7,9,11,13,-1,-1,-1,-1,-1,-1,-1,-1],"loss_changes":[7.0947156E0,6.4436684E0,5.5077057E0,3.8381827E0,1.0976011E1,1.1195693E0,1.0167452E1,0E0,0E0,0E0,0E0,0E0,0E0,0E0,0E0],"parents":[2147483647,0,0,1,1,2,2,3,3,4,4,5,5,6,6],"right_children":[2,4,6,8,10,12,14,-1,-1,-1,-1,-1,-1,-1,-1],"split_conditions":[1E0,1E0,9.219544E0,9.486833E0,4.5E1,2.3385221E1,1E0,1.338164E-2,-1.6257599E-2,3.9092813E-2,4.3539235E-1,-3.745328E-2,-2.0380682E-1,3.6349222E-2,2.889373E-1],"split_indices":[32,31,5,5,10,6,7,0,0,0,0,0,0,0,0],"split_type":[0,0,0,0,0,0,0,0,0,0,0,0,0,0,0],"sum_hessian":[1.1830836E3,1.0528126E3,1.3027104E2,1.005658E3,4.7154556E1,6.1275682E0,1.2414347E2,1.9837733E2,8.072807E2,4.4455227E1,2.6993308E0,2.4820528E0,3.6455157E0,1.18038124E2,6.105349E0],"tree_param":{"num_deleted":"0","num_feature":"39","num_nodes":"15","size_leaf_vector":"1"}},{"base_weights":[-2.980291E-3,-3.0999474E-2,2.1305789E-1,-1.3612814E-1,1.9152239E-2,2.7563953E-1,-5.698037E-1,-2.8312642E-2,2.4014619E-1,8.989318E-3,-4.3354385E-2,3.239076E-2,1.3727435E-1,-2.385739E-1,-3.2935183E-2],"categories":[],"categories_nodes":[],"categories_segments":[],"categories_sizes":[],"default_left":[0,0,0,0,0,0,0,0,0,0,0,0,0,0,0],"id":30,"left_children":[1,3,5,7,9,11,13,-1,-1,-1,-1,-1,-1,-1,-1],"loss_changes":[7.092005E0,5.4685874E0,6.591747E0,5.6773863E0,4.828064E0,5.852562E0,2.6877408E0,0E0,0E0,0E0,0E0,0E0,0E0,0E0,0E0],"parents":[2147483647,0,0,1,1,2,2,3,3,4,4,5,5,6,6],"right_children":[2,4,6,8,10,12,14,-1,-1,-1,-1,-1,-1,-1,-1],"split_conditions":[1E0,0E0,1.1E3,1E0,5.0194427E1,3.7568592E1,1.9872175E1,-2.8312642E-2,2.4014619E-1,8.989318E-3,-4.3354385E-2,3.239076E-2,1.3727435E-1,-2.385739E-1,-3.2935183E-2],"split_indices":[32,2,1,22,6,6,6,0,0,0,0,0,0,0,0],"split_type":[0,0,0,0,0,0,0,0,0,0,0,0,0,0,0],"sum_hessian":[1.1714226E3,1.036952E3,1.3447054E2,3.349341E2,7.020179E2,1.24521194E2,9.94935E0,3.3204242E2,2.8917E0,6.3051605E2,7.150186E1,1.0049768E2,2.4023508E1,3.667037E0,6.282313E0],"tree_param":{"num_deleted":"0","num_feature":"39","num_nodes":"15","size_leaf_vector":"1"}},{"base_weights":[-1.6477881E-2,3.2784456E-1,-3.8185388E-2,4.2261818E-1,-8.603667E-1,-2.7116932E-2,-7.2126716E-1,3.538156E-2,1.799492E-1,-9.060608E-2,-2.2858953E-1,-1.0151217E-2,3.4273323E-2,-1.6747801E-1,8.957681E-2],"categories":[],"categories_nodes":[],"categories_segments":[],"categories_sizes":[],"default_left":[0,0,0,0,0,0,0,0,0,0,0,0,0,0,0],"id":31,"left_children":[1,3,5,7,9,11,13,-1,-1,-1,-1,-1,-1,-1,-1],"loss_changes":[8.757747E0,7.828146E0,8.334608E0,7.9376726E0,6.662631E-1,5.837171E0,3.2651596E0,0E0,0E0,0E0,0E0,0E0,0E0,0E0,0E0],"parents":[2147483647,0,0,1,1,2,2,3,3,4,4,5,5,6,6],"right_children":[2,4,6,8,10,12,14,-1,-1,-1,-1,-1,-1,-1,-1],"split_conditions":[9.5484126E-1,1E0,6.0373837E1,3E0,1E1,3.1E1,3.8E1,3.538156E-2,1.799492E-1,-9.060608E-2,-2.2858953E-1,-1.0151217E-2,3.4273323E-2,-1.6747801E-1,8.957681E-2],"split_indices":[6,33,5,0,10,10,10,0,0,0,0,0,0,0,0],"split_type":[0,0,0,0,0,0,0,0,0,0,0,0,0,0,0],"sum_hessian":[1.171495E3,6.9465515E1,1.1020295E3,6.433707E1,5.128448E0,1.0844628E3,1.7566786E1,4.4175743E1,2.0161325E1,2.3953898E0,2.7330582E0,9.6307086E2,1.2139185E2,1.5536029E1,2.0307572E0],"tree_param":{"num_deleted":"0","num_feature":"39","num_nodes":"15","size_leaf_vector":"1"}},{"base_weights":[1.0939427E-3,1.1243871E-2,-3.597132E-1,-7.606831E-2,4.6547424E-2,-4.824772E-1,1.045153E-1,1.3761657E-2,-3.0186469E-2,6.138343E-3,7.645508E-2,-4.8995715E-2,-1.4742237E-1],"categories":[],"categories_nodes":[],"categories_segments":[],"categories_sizes":[],"default_left":[0,0,0,0,0,0,0,0,0,0,0,0,0],"id":32,"left_children":[1,3,5,7,9,11,-1,-1,-1,-1,-1,-1,-1],"loss_changes":[4.3110294E0,3.5288434E0,3.5891724E0,4.0054636E0,4.154513E0,1.8550391E0,0E0,0E0,0E0,0E0,0E0,0E0,0E0],"parents":[2147483647,0,0,1,1,2,2,3,3,4,4,5,5],"right_children":[2,4,6,8,10,12,-1,-1,-1,-1,-1,-1,-1],"split_conditions":[5.2924473E1,2E0,1.18511604E2,5E0,5E1,6.1E1,1.045153E-1,1.3761657E-2,-3.0186469E-2,6.138343E-3,7.645508E-2,-4.8995715E-2,-1.4742237E-1],"split_indices":[5,0,11,10,10,11,0,0,0,0,0,0,0],"split_type":[0,0,0,0,0,0,0,0,0,0,0,0,0],"sum_hessian":[1.1767765E3,1.1445884E3,3.218815E1,3.2951938E2,8.1506903E2,2.8354773E1,3.8333766E0,1.1741417E2,2.1210521E2,7.83208E2,3.1860981E1,1.5937224E1,1.2417548E1],"tree_param":{"num_deleted":"0","num_feature":"39","num_nodes":"13","size_leaf_vector":"1"}},{"base_weights":[1.947711E-2,3.1963352E-2,-3.549781E-1,-2.7090594E-1,4.4601407E-2,-4.255464E-2,-7.773874E-1,-1.6476945E-3,-1.2182371E-1,9.728994E-3,-9.8213114E-2,-8.0999665E-2,1.4171863E-1,-1.2642702E-1,-2.1978877E-1],"categories":[],"categories_nodes":[],"categories_segments":[],"categories_sizes":[],"default_left":[0,0,0,0,0,0,0,0,0,0,0,0,0,0,0],"id":33,"left_children":[1,3,5,7,9,11,13,-1,-1,-1,-1,-1,-1,-1,-1],"loss_changes":[5.4940763E0,4.3527365E0,5.001819E0,4.3837366E0,3.876258E0,6.533602E0,6.947899E-1,0E0,0E0,0E0,0E0,0E0,0E0,0E0,0E0],"parents":[2147483647,0,0,1,1,2,2,3,3,4,4,5,5,6,6],"right_children":[2,4,6,8,10,12,14,-1,-1,-1,-1,-1,-1,-1,-1],"split_conditions":[1E0,7.6E1,7.05E2,2.6995838E1,6.711929E1,4.75E2,1.4504137E2,-1.6476945E-3,-1.2182371E-1,9.728994E-3,-9.8213114E-2,-8.0999665E-2,1.4171863E-1,-1.2642702E-1,-2.1978877E-1],"split_indices":[33,1,1,6,5,1,11,0,0,0,0,0,0,0,0],"split_type":[0,0,0,0,0,0,0,0,0,0,0,0,0,0,0],"sum_hessian":[1.1747355E3,1.1368376E3,3.789786E1,4.5525543E1,1.0913121E3,2.1790243E1,1.6107618E1,2.6560083E1,1.8965458E1,1.0790585E3,1.2253598E1,1.4663642E1,7.1266017E0,1.2318039E1,3.7895794E0],"tree_param":{"num_deleted":"0","num_feature":"39","num_nodes":"15","size_leaf_vector":"1"}},{"base_weights":[-7.0425454E-3,4.972343E-2,-6.1825592E-2,-6.1628535E-2,1.3006619E-1,-1.7755777E-1,3.6440656E-2,1.020431E-2,-9.029811E-2,5.2366987E-2,-3.000759E-3,-3.615508E-2,2.644126E-1,2.6816437E-3,1.9838862E-1],"categories":[],"categories_nodes":[],"categories_segments":[],"categories_sizes":[],"default_left":[0,0,0,0,0,0,0,0,0,0,0,0,0,0,0],"id":34,"left_children":[1,3,5,7,9,11,13,-1,-1,-1,-1,-1,-1,-1,-1],"loss_changes":[3.6513066E0,5.158534E0,6.795599E0,1.1438318E1,7.041265E0,5.060297E0,7.257543E0,0E0,0E0,0E0,0E0,0E0,0E0,0E0,0E0],"parents":[2147483647,0,0,1,1,2,2,3,3,4,4,5,5,6,6],"right_children":[2,4,6,8,10,12,14,-1,-1,-1,-1,-1,-1,-1,-1],"split_conditions":[7E0,5.6920998E1,1.3138112E2,4E0,2.1501434E1,7.869007E1,1E0,1.020431E-2,-9.029811E-2,5.2366987E-2,-3.000759E-3,-3.615508E-2,2.644126E-1,2.6816437E-3,1.9838862E-1],"split_indices":[10,11,11,10,6,6,31,0,0,0,0,0,0,0,0],"split_type":[0,0,0,0,0,0,0,0,0,0,0,0,0,0,0],"sum_hessian":[1.1738556E3,5.764605E2,5.973951E2,2.4158542E2,3.348751E2,2.7433636E2,3.2305872E2,1.8876283E2,5.2822594E1,1.6837057E2,1.6650453E2,2.722836E2,2.0527647E0,3.1600314E2,7.0555553E0],"tree_param":{"num_deleted":"0","num_feature":"39","num_nodes":"15","size_leaf_vector":"1"}},{"base_weights":[-2.7781682E-2,-2.0701269E-2,-7.424111E-1,3.5117557E-3,-1.5070607E-1,-1.916068E-1,-3.0879399E-2,-1.3260456E-3,1.7688248E-1,-3.4814777E-3,-5.7293136E-2],"categories":[],"categories_nodes":[],"categories_segments":[],"categories_sizes":[],"default_left":[0,0,0,0,0,0,0,0,0,0,0],"id":35,"left_children":[1,3,5,7,9,-1,-1,-1,-1,-1,-1],"loss_changes":[5.9280157E0,3.651647E0,1.7396655E0,9.442961E0,3.60247E0,0E0,0E0,0E0,0E0,0E0,0E0],"parents":[2147483647,0,0,1,1,2,2,3,3,4,4],"right_children":[2,4,6,8,10,-1,-1,-1,-1,-1,-1],"split_conditions":[6.711929E1,1.005E3,1.59E2,9.91E2,1.720465E1,-1.916068E-1,-3.0879399E-2,-1.3260456E-3,1.7688248E-1,-3.4814777E-3,-5.7293136E-2],"split_indices":[5,1,5,1,5,0,0,0,0,0,0],"split_type":[0,0,0,0,0,0,0,0,0,0,0],"sum_hessian":[1.1710463E3,1.1595629E3,1.1483448E1,9.774808E2,1.8208206E2,7.9174395E0,3.5660083E0,9.665254E2,1.0955424E1,9.65057E1,8.557636E1],"tree_param":{"num_deleted":"0","num_feature":"39","num_nodes":"11","size_leaf_vector":"1"}},{"base_weights":[1.078213E-2,2.0305425E-1,-2.0817386E-2,2.4328665E-1,-3.9723212E-1,3.3417914E-2,-9.0963505E-2,4.2896423E-2,2.6776016E-1,-1.2379245E-1,1.1576522E-1,7.823532E-2,7.7335647E-4,-1.1269882E-1,-1.2462448E-2],"categories":[],"categories_nodes":[],"categories_segments":[],"categories_sizes":[],"default_left":[0,0,0,0,0,0,0,0,0,0,0,0,0,0,0],"id":36,"left_children":[1,3,5,7,9,11,13,-1,-1,-1,-1,-1,-1,-1,-1],"loss_changes":[7.0198765E0,3.9405022E0,3.7748628E0,3.3040934E0,2.585702E0,6.1835375E0,5.5511365E0,0E0,0E0,0E0,0E0,0E0,0E0,0E0,0E0],"parents":[2147483647,0,0,1,1,2,2,3,3,4,4,5,5,6,6],"right_children":[2,4,6,8,10,12,14,-1,-1,-1,-1,-1,-1,-1,-1],"split_conditions":[9E0,1E0,2.4519642E1,1E0,3.4045937E1,1.26E2,1.2369317E1,4.2896423E-2,2.6776016E-1,-1.2379245E-1,1.1576522E-1,7.823532E-2,7.7335647E-4,-1.1269882E-1,-1.2462448E-2],"split_indices":[5,8,6,20,6,1,11,0,0,0,0,0,0,0,0],"split_type":[0,0,0,0,0,0,0,0,0,0,0,0,0,0,0],"sum_hessian":[1.155023E3,1.6304854E2,9.9197437E2,1.5281299E2,1.0235546E1,5.5940326E2,4.325711E2,1.5039862E2,2.4143693E0,8.190069E0,2.0454764E0,4.0486526E1,5.1891675E2,2.1166399E1,4.114047E2],"tree_param":{"num_deleted":"0","num_feature":"39","num_nodes":"15","size_leaf_vector":"1"}},{"base_weights":[4.0961796E-4,7.609636E-2,-5.7416096E-2,-1.9878583E-1,1.2302539E-1,1.2154506E-1,-9.369229E-2,-8.035086E-3,-1.629225E-1,6.446823E-2,1.4105772E-2,5.1240522E-2,-3.3500016E-2,-1.0831828E-2,-7.275601E-2],"categories":[],"categories_nodes":[],"categories_segments":[],"categories_sizes":[],"default_left":[0,0,0,0,0,0,0,0,0,0,0,0,0,0,0],"id":37,"left_children":[1,3,5,7,9,11,13,-1,-1,-1,-1,-1,-1,-1,-1],"loss_changes":[5.0524783E0,6.450431E0,4.248562E0,7.4772863E0,4.5049167E0,4.809886E0,5.779081E0,0E0,0E0,0E0,0E0,0E0,0E0,0E0,0E0],"parents":[2147483647,0,0,1,1,2,2,3,3,4,4,5,5,6,6],"right_children":[2,4,6,8,10,12,14,-1,-1,-1,-1,-1,-1,-1,-1],"split_conditions":[6E0,1.2369317E1,9.899495E0,3E0,2.9546574E1,1.5261061E2,1E0,-8.035086E-3,-1.629225E-1,6.446823E-2,1.4105772E-2,5.1240522E-2,-3.3500016E-2,-1.0831828E-2,-7.275601E-2],"split_indices":[10,11,5,10,11,11,25,0,0,0,0,0,0,0,0],"split_type":[0,0,0,0,0,0,0,0,0,0,0,0,0,0,0],"sum_hessian":[1.1541736E3,4.9991357E2,6.542601E2,7.2889565E1,4.27024E2,1.1025171E2,5.4400836E2,5.881317E1,1.4076396E1,7.956176E1,3.4746225E2,7.378872E1,3.646299E1,4.8201447E2,6.199388E1],"tree_param":{"num_deleted":"0","num_feature":"39","num_nodes":"15","size_leaf_vector":"1"}},{"base_weights":[9.0959563E-4,6.560175E-3,-7.3455864E-1,-1.2807201E-2,2.199279E-1,-1.9847925E-1,-9.640869E-3,1.1188343E-2,-1.5975872E-2,-7.6169833E-3,1.18580215E-1],"categories":[],"categories_nodes":[],"categories_segments":[],"categories_sizes":[],"default_left":[0,0,0,0,0,0,0,0,0,0,0],"id":38,"left_children":[1,3,5,7,9,-1,-1,-1,-1,-1,-1],"loss_changes":[4.776985E0,4.7135234E0,1.8244061E0,5.2891455E0,9.893785E0,0E0,0E0,0E0,0E0,0E0,0E0],"parents":[2147483647,0,0,1,1,2,2,3,3,4,4],"right_children":[2,4,6,8,10,-1,-1,-1,-1,-1,-1],"split_conditions":[1E0,1E0,6.716634E1,2.1250505E1,1E0,-1.9847925E-1,-9.640869E-3,1.1188343E-2,-1.5975872E-2,-7.6169833E-3,1.18580215E-1],"split_indices":[34,18,6,6,3,0,0,0,0,0,0],"split_type":[0,0,0,0,0,0,0,0,0,0,0],"sum_hessian":[1.1487845E3,1.1400309E3,8.753688E0,1.0451454E3,9.488548E1,6.051035E0,2.7026532E0,5.205578E2,5.2458765E2,5.757837E1,3.7307117E1],"tree_param":{"num_deleted":"0","num_feature":"39","num_nodes":"11","size_leaf_vector":"1"}},{"base_weights":[4.9825753E-3,-4.7939682E-1,1.3661938E-2,-2.2227949E-1,-8.591548E-1,3.9610457E-2,-1.3057727E-1,-8.234163E-2,1.5899566E-1,-2.5285956E-2,-2.1405557E-1,-1.1179541E-3,2.7734997E-2,-8.216904E-2,-5.1482505E-4],"categories":[],"categories_nodes":[],"categories_segments":[],"categories_sizes":[],"default_left":[0,0,0,0,0,0,0,0,0,0,0,0,0,0,0],"id":39,"left_children":[1,3,5,7,9,11,13,-1,-1,-1,-1,-1,-1,-1,-1],"loss_changes":[4.8559365E0,1.984231E0,4.246183E0,2.6782103E0,1.5581775E0,4.618803E0,6.6292067E0,0E0,0E0,0E0,0E0,0E0,0E0,0E0,0E0],"parents":[2147483647,0,0,1,1,2,2,3,3,4,4,5,5,6,6],"right_children":[2,4,6,8,10,12,14,-1,-1,-1,-1,-1,-1,-1,-1],"split_conditions":[4.2E1,1E1,1.005E3,1.18016945E2,6.4815125E1,7.14E2,1.064E3,-8.234163E-2,1.5899566E-1,-2.5285956E-2,-2.1405557E-1,-1.1179541E-3,2.7734997E-2,-8.216904E-2,-5.1482505E-4],"split_indices":[1,10,1,11,11,1,1,0,0,0,0,0,0,0,0],"split_type":[0,0,0,0,0,0,0,0,0,0,0,0,0,0,0],"sum_hessian":[1.1545881E3,2.0316671E1,1.1342715E3,1.2120418E1,8.196255E0,9.613513E2,1.7292015E2,1.0119605E1,2.0008118E0,2.1750476E0,6.021207E0,6.720744E2,2.8927692E2,5.170145E1,1.2121871E2],"tree_param":{"num_deleted":"0","num_feature":"39","num_nodes":"15","size_leaf_vector":"1"}},{"base_weights":[-3.2868683E-2,-4.226229E-2,5.003749E-1,-3.0835986E-2,-4.4268355E-1,1.9739535E-1,1.4256941E0,-3.1257644E-2,-2.814284E-3,-5.3667184E-2,-1.568235E-1,-1.901604E-2,3.7520114E-1,2.8077943E-2,4.602125E-1],"categories":[],"categories_nodes":[],"categories_segments":[],"categories_sizes":[],"default_left":[0,0,0,0,0,0,0,0,0,0,0,0,0,0,0],"id":40,"left_children":[1,3,5,7,9,11,13,-1,-1,-1,-1,-1,-1,-1,-1],"loss_changes":[5.792009E0,5.1984835E0,5.610104E0,2.3624163E0,1.9286981E0,7.9329977E0,6.2060814E0,0E0,0E0,0E0,0E0,0E0,0E0,0E0,0E0],"parents":[2147483647,0,0,1,1,2,2,3,3,4,4,5,5,6,6],"right_children":[2,4,6,8,10,12,14,-1,-1,-1,-1,-1,-1,-1,-1],"split_conditions":[1E0,1.164E3,9.03E2,1.9313208E1,1.3601471E2,2E0,1.835756E1,-3.1257644E-2,-2.814284E-3,-5.3667184E-2,-1.568235E-1,-1.901604E-2,3.7520114E-1,2.8077943E-2,4.602125E-1],"split_indices":[13,1,1,11,11,2,11,0,0,0,0,0,0,0,0],"split_type":[0,0,0,0,0,0,0,0,0,0,0,0,0,0,0],"sum_hessian":[1.1558788E3,1.1358763E3,2.0002487E1,1.1043717E3,3.1504597E1,1.5071628E1,4.9308596E0,1.1931466E2,9.8505707E2,2.2086706E1,9.417891E0,1.2901777E1,2.16985E0,2.1466804E0,2.7841792E0],"tree_param":{"num_deleted":"0","num_feature":"39","num_nodes":"15","size_leaf_vector":"1"}},{"base_weights":[-1.6886232E-2,8.341171E-3,-1.6984996E-1,-4.3966085E-2,1.0254274E-1,2.1183702E-1,-3.2323265E-1,-1.3302806E-2,5.2308276E-2,5.0476223E-2,-9.4442687E-4,4.736467E-3,1.7762248E-1,-2.3039602E-2,-1.14910245E-1],"categories":[],"categories_nodes":[],"categories_segments":[],"categories_sizes":[],"default_left":[0,0,0,0,0,0,0,0,0,0,0,0,0,0,0],"id":41,"left_children":[1,3,5,7,9,11,13,-1,-1,-1,-1,-1,-1,-1,-1],"loss_changes":[4.449469E0,4.8763456E0,9.557395E0,5.1994095E0,6.1463537E0,6.286837E0,6.570017E0,0E0,0E0,0E0,0E0,0E0,0E0,0E0,0E0],"parents":[2147483647,0,0,1,1,2,2,3,3,4,4,5,5,6,6],"right_children":[2,4,6,8,10,12,14,-1,-1,-1,-1,-1,-1,-1,-1],"split_conditions":[1E0,2.9357754E1,1.0669783E1,1.104E3,1.6E1,1.4504137E2,1.2E1,-1.3302806E-2,5.2308276E-2,5.0476223E-2,-9.4442687E-4,4.736467E-3,1.7762248E-1,-2.3039602E-2,-1.14910245E-1],"split_indices":[25,6,6,1,5,11,5,0,0,0,0,0,0,0,0],"split_type":[0,0,0,0,0,0,0,0,0,0,0,0,0,0,0],"sum_hessian":[1.1525735E3,9.8937683E2,1.6319673E2,6.3611914E2,3.5325763E2,4.67748E1,1.16421936E2,5.8854767E2,4.7571514E1,1.4101468E2,2.1224295E2,3.71169E1,9.657899E0,6.74138E1,4.900814E1],"tree_param":{"num_deleted":"0","num_feature":"39","num_nodes":"15","size_leaf_vector":"1"}},{"base_weights":[8.779387E-3,-6.569182E-2,4.7422744E-2,-2.8295234E-1,2.0411655E-2,-5.362194E-2,9.390446E-2,-1.2976557E-1,-3.9858047E-2,-1.2345554E-2,3.5012312E-2,-1.1009511E-1,-2.0948849E-3,8.324023E-3,4.3807186E-2],"categories":[],"categories_nodes":[],"categories_segments":[],"categories_sizes":[],"default_left":[0,0,0,0,0,0,0,0,0,0,0,0,0,0,0],"id":42,"left_children":[1,3,5,7,9,11,13,-1,-1,-1,-1,-1,-1,-1,-1],"loss_changes":[3.319568E0,7.372409E0,3.5671332E0,3.292882E0,3.9129927E0,5.33734E0,3.5463405E0,0E0,0E0,0E0,0E0,0E0,0E0,0E0,0E0],"parents":[2147483647,0,0,1,1,2,2,3,3,4,4,5,5,6,6],"right_children":[2,4,6,8,10,12,14,-1,-1,-1,-1,-1,-1,-1,-1],"split_conditions":[1E0,2E0,0E0,3E0,1E0,2.3859441E0,1.4E1,-1.2976557E-1,-3.9858047E-2,-1.2345554E-2,3.5012312E-2,-1.1009511E-1,-2.0948849E-3,8.324023E-3,4.3807186E-2],"split_indices":[35,0,2,10,32,6,10,0,0,0,0,0,0,0,0],"split_type":[0,0,0,0,0,0,0,0,0,0,0,0,0,0,0],"sum_hessian":[1.1532521E3,3.9395245E2,7.592997E2,1.1182754E2,2.821249E2,2.3920988E2,5.200898E2,1.7616358E1,9.421118E1,1.853452E2,9.67797E1,1.8031143E1,2.2117874E2,3.7930594E2,1.4078383E2],"tree_param":{"num_deleted":"0","num_feature":"39","num_nodes":"15","size_leaf_vector":"1"}},{"base_weights":[2.8054293E-3,9.662249E-3,-8.295233E-1,7.2405055E-2,-5.1139798E-2,-2.1782139E-1,-6.3715346E-2,1.4620513E-1,1.1336143E-2,-1.679315E-2,2.9872155E-2],"categories":[],"categories_nodes":[],"categories_segments":[],"categories_sizes":[],"default_left":[0,0,0,0,0,0,0,0,0,0,0],"id":43,"left_children":[1,3,5,7,9,-1,-1,-1,-1,-1,-1],"loss_changes":[6.593494E0,4.3701854E0,1.4546976E0,5.0970182E0,4.4453416E0,0E0,0E0,0E0,0E0,0E0,0E0],"parents":[2147483647,0,0,1,1,2,2,3,3,4,4],"right_children":[2,4,6,8,10,-1,-1,-1,-1,-1,-1],"split_conditions":[7.2E1,1E0,3E0,1E0,1E0,-2.1782139E-1,-6.3715346E-2,1.4620513E-1,1.1336143E-2,-1.679315E-2,2.9872155E-2],"split_indices":[10,9,0,10,21,0,0,0,0,0,0],"split_type":[0,0,0,0,0,0,0,0,0,0,0],"sum_hessian":[1.154744E3,1.1453134E3,9.430685E0,5.636914E2,5.816219E2,5.7891397E0,3.6415455E0,1.0397937E1,5.5329346E2,4.94038E2,8.758391E1],"tree_param":{"num_deleted":"0","num_feature":"39","num_nodes":"11","size_leaf_vector":"1"}},{"base_weights":[3.127514E-2,7.531293E-2,-2.2448368E-2,6.821757E-2,1.1515679E0,-2.656012E-1,3.177225E-3,8.78185E-3,7.791717E-2,3.2135844E-1,1.2459529E-1,-2.162424E-2,-8.879891E-2,1.4847514E-3,-1.9124551E-1],"categories":[],"categories_nodes":[],"categories_segments":[],"categories_sizes":[],"default_left":[0,0,0,0,0,0,0,0,0,0,0,0,0,0,0],"id":44,"left_children":[1,3,5,7,9,11,13,-1,-1,-1,-1,-1,-1,-1,-1],"loss_changes":[2.746178E0,4.874174E0,3.2597747E0,4.7868066E0,1.1069636E0,1.5149398E0,2.1886928E0,0E0,0E0,0E0,0E0,0E0,0E0,0E0,0E0],"parents":[2147483647,0,0,1,1,2,2,3,3,4,4,5,5,6,6],"right_children":[2,4,6,8,10,12,14,-1,-1,-1,-1,-1,-1,-1,-1],"split_conditions":[1.8110771E1,1E0,1.9697716E1,1E0,0E0,6.95E2,1.6907098E2,8.78185E-3,7.791717E-2,3.2135844E-1,1.2459529E-1,-2.162424E-2,-8.879891E-2,1.4847514E-3,-1.9124551E-1],"split_indices":[5,22,5,32,2,1,5,0,0,0,0,0,0,0,0],"split_type":[0,0,0,0,0,0,0,0,0,0,0,0,0,0,0],"sum_hessian":[1.1604536E3,6.3775146E2,5.227021E2,6.3357806E2,4.1734433E0,4.9848972E1,4.7285315E2,5.946968E2,3.8881237E1,2.0174518E0,2.1559916E0,2.8272276E1,2.1576696E1,4.7070255E2,2.1505861E0],"tree_param":{"num_deleted":"0","num_feature":"39","num_nodes":"15","size_leaf_vector":"1"}},{"base_weights":[-1.4380266E-2,-5.8035854E-2,9.21383E-2,-4.1146867E-2,-3.1909233E-1,2.3778078E-1,-4.7542658E-2,-1.0396603E-2,1.25851E-1,-8.663747E-2,5.6693234E-2,-1.2744924E-1,5.503677E-2,1.5834333E-1,-1.6762763E-2],"categories":[],"categories_nodes":[],"categories_segments":[],"categories_sizes":[],"default_left":[0,0,0,0,0,0,0,0,0,0,0,0,0,0,0],"id":45,"left_children":[1,3,5,7,9,11,13,-1,-1,-1,-1,-1,-1,-1,-1],"loss_changes":[5.368619E0,3.6109152E0,6.8281155E0,7.1661453E0,4.129189E0,7.5073185E0,6.047307E0,0E0,0E0,0E0,0E0,0E0,0E0,0E0,0E0],"parents":[2147483647,0,0,1,1,2,2,3,3,4,4,5,5,6,6],"right_children":[2,4,6,8,10,12,14,-1,-1,-1,-1,-1,-1,-1,-1],"split_conditions":[3E0,5.7994617E1,1E0,5.4462322E1,1E0,9.899495E0,7.071068E0,-1.0396603E-2,1.25851E-1,-8.663747E-2,5.6693234E-2,-1.2744924E-1,5.503677E-2,1.5834333E-1,-1.6762763E-2],"split_indices":[0,6,9,6,7,11,5,0,0,0,0,0,0,0,0],"split_type":[0,0,0,0,0,0,0,0,0,0,0,0,0,0,0],"sum_hessian":[1.1543165E3,8.1878217E2,3.355344E2,7.690435E2,4.9738617E1,1.642751E2,1.7125928E2,7.5471246E2,1.4331045E1,4.08221E1,8.916517E0,8.668819E0,1.556063E2,7.5118856E0,1.6374739E2],"tree_param":{"num_deleted":"0","num_feature":"39","num_nodes":"15","size_leaf_vector":"1"}},{"base_weights":[2.9571312E-3,-1.1033122E-1,5.5522103E-2,1.6000663E-1,-1.4423491E-1,-4.064722E-2,1.0574209E-1,5.3140845E-2,-1.6895951E-1,-2.5335014E-2,-1.74266E-1,-2.4645012E-3,-1.1583966E-1,1.43306125E-2,9.511435E-2],"categories":[],"categories_nodes":[],"categories_segments":[],"categories_sizes":[],"default_left":[0,0,0,0,0,0,0,0,0,0,0,0,0,0,0],"id":46,"left_children":[1,3,5,7,9,11,13,-1,-1,-1,-1,-1,-1,-1,-1],"loss_changes":[6.889963E0,3.361642E0,3.8173623E0,5.053812E0,2.8945446E0,4.258165E0,6.2532287E0,0E0,0E0,0E0,0E0,0E0,0E0,0E0,0E0],"parents":[2147483647,0,0,1,1,2,2,3,3,4,4,5,5,6,6],"right_children":[2,4,6,8,10,12,14,-1,-1,-1,-1,-1,-1,-1,-1],"split_conditions":[0E0,1.96E2,1E0,3.2E1,6.5E1,4.7E1,1.104E3,5.3140845E-2,-1.6895951E-1,-2.5335014E-2,-1.74266E-1,-2.4645012E-3,-1.1583966E-1,1.43306125E-2,9.511435E-2],"split_indices":[2,1,35,10,10,10,1,0,0,0,0,0,0,0,0],"split_type":[0,0,0,0,0,0,0,0,0,0,0,0,0,0,0],"sum_hessian":[1.156833E3,3.6661984E2,7.902132E2,4.084251E1,3.257773E2,2.7106296E2,5.1915027E2,3.669187E1,4.150638E0,3.209575E2,4.8198376E0,2.584055E2,1.2657492E1,4.8149973E2,3.7650513E1],"tree_param":{"num_deleted":"0","num_feature":"39","num_nodes":"15","size_leaf_vector":"1"}},{"base_weights":[-3.0125063E-2,-1.8158717E-1,-7.0622386E-3,-1.0821632E-1,-7.3722464E-1,2.77474E-2,-1.3781253E-1,-4.5329634E-2,3.7043452E-2,-2.0902568E-1,-3.184931E-2,3.2949844E-1,4.4346796E-3,1.9189437E-1,-3.0415943E-2],"categories":[],"categories_nodes":[],"categories_segments":[],"categories_sizes":[],"default_left":[0,0,0,0,0,0,0,0,0,0,0,0,0,0,0],"id":47,"left_children":[1,3,5,7,9,11,13,-1,-1,-1,-1,-1,-1,-1,-1],"loss_changes":[4.066515E0,6.2717595E0,4.5994353E0,5.306902E0,3.656127E0,6.1319995E0,5.2191463E0,0E0,0E0,0E0,0E0,0E0,0E0,0E0,0E0],"parents":[2147483647,0,0,1,1,2,2,3,3,4,4,5,5,6,6],"right_children":[2,4,6,8,10,12,14,-1,-1,-1,-1,-1,-1,-1,-1],"split_conditions":[2.2825424E1,5.1519802E1,1E0,2.9623749E1,7.5E2,1.5E1,-3E0,-4.5329634E-2,3.7043452E-2,-2.0902568E-1,-3.184931E-2,3.2949844E-1,4.4346796E-3,1.9189437E-1,-3.0415943E-2],"split_indices":[11,6,21,6,1,1,2,0,0,0,0,0,0,0,0],"split_type":[0,0,0,0,0,0,0,0,0,0,0,0,0,0,0],"sum_hessian":[1.1640032E3,1.5379707E2,1.0102061E3,1.3586337E2,1.7933699E1,7.9778345E2,2.1242268E2,9.5188065E1,4.0675316E1,1.1020609E1,6.9130898E0,2.116994E0,7.9566644E2,3.9159405E0,2.0850674E2],"tree_param":{"num_deleted":"0","num_feature":"39","num_nodes":"15","size_leaf_vector":"1"}},{"base_weights":[7.9689943E-4,-1.1622362E-2,4.115808E-1,-3.2116732E-1,1.7178701E-3,1.0422643E0,6.745044E-2,2.5989246E-1,-7.864507E-2,1.7854373E-1,-8.6400943E-4,1.0176167E-1,4.6644688E-1,-4.2187434E-2,1.2738463E-1],"categories":[],"categories_nodes":[],"categories_segments":[],"categories_sizes":[],"default_left":[0,0,0,0,0,0,0,0,0,0,0,0,0,0,0],"id":48,"left_children":[1,3,5,7,9,11,13,-1,-1,-1,-1,-1,-1,-1,-1],"loss_changes":[5.8810954E0,4.6204524E0,7.339423E0,7.058172E0,6.2559586E0,8.515297E0,3.7917612E0,0E0,0E0,0E0,0E0,0E0,0E0,0E0,0E0],"parents":[2147483647,0,0,1,1,2,2,3,3,4,4,5,5,6,6],"right_children":[2,4,6,8,10,12,14,-1,-1,-1,-1,-1,-1,-1,-1],"split_conditions":[4E0,7.6E1,1.2529964E1,-2E0,8.7E1,1.1401754E1,8.81E2,2.5989246E-1,-7.864507E-2,1.7854373E-1,-8.6400943E-4,1.0176167E-1,4.6644688E-1,-4.2187434E-2,1.2738463E-1],"split_indices":[2,1,5,2,1,5,1,0,0,0,0,0,0,0,0],"split_type":[0,0,0,0,0,0,0,0,0,0,0,0,0,0,0],"sum_hessian":[1.1518656E3,1.1180542E3,3.381141E1,4.62049E1,1.0718492E3,1.1932283E1,2.1879126E1,2.3618286E0,4.384307E1,7.125622E0,1.0647236E3,8.752254E0,3.1800306E0,1.4769874E1,7.109253E0],"tree_param":{"num_deleted":"0","num_feature":"39","num_nodes":"15","size_leaf_vector":"1"}},{"base_weights":[1.2098707E-2,2.594588E-1,8.788615E-3,-2.0460837E-1,3.208653E-2,-2.6395768E-2,-1.5739346E-1,1.1310247E-2,-2.1734407E-2],"categories":[],"categories_nodes":[],"categories_segments":[],"categories_sizes":[],"default_left":[0,0,0,0,0,0,0,0,0],"id":49,"left_children":[1,-1,3,5,7,-1,-1,-1,-1],"loss_changes":[5.114537E0,0E0,5.685604E0,4.6301208E0,4.0841846E0,0E0,0E0,0E0,0E0],"parents":[2147483647,0,0,2,2,3,3,4,4],"right_children":[2,-1,4,6,8,-1,-1,-1,-1],"split_conditions":[1.5E1,2.594588E-1,1.63E2,1.5205263E2,4.270939E1,-2.6395768E-2,-1.5739346E-1,1.1310247E-2,-2.1734407E-2],"split_indices":[1,0,1,11,6,0,0,0,0],"split_type":[0,0,0,0,0,0,0,0,0],"sum_hessian":[1.1461848E3,2.8074727E0,1.1433774E3,1.1252684E2,1.0308506E3,1.0164646E2,1.0880381E1,8.6916797E2,1.6168257E2],"tree_param":{"num_deleted":"0","num_feature":"39","num_nodes":"9","size_leaf_vector":"1"}},{"base_weights":[6.593377E-3,-6.285404E-1,1.1783349E-2,-2.3589121E-1,-3.5401297E-1,-7.8866236E-2,4.08523E-2,9.918213E-2,-1.5819253E-1,1.3131438E-2,-4.362265E-2,-2.1275532E-1,8.703684E-3],"categories":[],"categories_nodes":[],"categories_segments":[],"categories_sizes":[],"default_left":[0,0,0,0,0,0,0,0,0,0,0,0,0],"id":50,"left_children":[1,3,5,-1,7,9,11,-1,-1,-1,-1,-1,-1],"loss_changes":[3.8415904E0,1.5729628E0,3.0448213E0,0E0,2.702365E0,6.196636E0,4.7840815E0,0E0,0E0,0E0,0E0,0E0,0E0],"parents":[2147483647,0,0,1,1,2,2,4,4,5,5,6,6],"right_children":[2,4,6,-1,8,10,12,-1,-1,-1,-1,-1,-1],"split_conditions":[2.6E1,1.2083046E1,5.2201534E1,-2.3589121E-1,1.7720045E1,3E0,1E0,9.918213E-2,-1.5819253E-1,1.3131438E-2,-4.362265E-2,-2.1275532E-1,8.703684E-3],"split_indices":[1,5,11,0,5,10,10,0,0,0,0,0,0],"split_type":[0,0,0,0,0,0,0,0,0,0,0,0,0],"sum_hessian":[1.1646703E3,9.434025E0,1.1552362E3,2.934146E0,6.4998784E0,2.804723E2,8.74764E2,2.2851648E0,4.214714E0,1.4114586E2,1.3932643E2,3.5644832E0,8.7119946E2],"tree_param":{"num_deleted":"0","num_feature":"39","num_nodes":"13","size_leaf_vector":"1"}},{"base_weights":[-1.0055133E-4,1.0216109E-2,-2.8348356E-1,7.359834E-3,1.6833E-1,1.2040123E-1,-5.6246704E-1,1.4261394E-2,-5.5491133E-3,3.1336322E-1,-3.132548E-2,-1.9532382E-1,-6.251033E-2],"categories":[],"categories_nodes":[],"categories_segments":[],"categories_sizes":[],"default_left":[0,0,0,0,0,0,0,0,0,0,0,0,0],"id":51,"left_children":[1,3,5,7,-1,9,11,-1,-1,-1,-1,-1,-1],"loss_changes":[3.409987E0,2.801532E0,4.6182194E0,2.749009E0,0E0,7.2521124E0,2.623013E0,0E0,0E0,0E0,0E0,0E0,0E0],"parents":[2147483647,0,0,1,1,2,2,3,3,5,5,6,6],"right_children":[2,4,6,8,-1,10,12,-1,-1,-1,-1,-1,-1],"split_conditions":[4.7801674E1,4.7010635E1,5.02E2,5E0,1.6833E-1,7.8533134E0,5.2201534E1,1.4261394E-2,-5.5491133E-3,3.1336322E-1,-3.132548E-2,-1.9532382E-1,-6.251033E-2],"split_indices":[5,5,1,10,0,6,5,0,0,0,0,0,0],"split_type":[0,0,0,0,0,0,0,0,0,0,0,0,0],"sum_hessian":[1.1652676E3,1.1243229E3,4.0944706E1,1.1206538E3,3.6691322E0,1.6722288E1,2.4222418E1,3.934387E2,7.272151E2,2.6371512E0,1.4085137E1,8.181354E0,1.6041063E1],"tree_param":{"num_deleted":"0","num_feature":"39","num_nodes":"13","size_leaf_vector":"1"}},{"base_weights":[1.607847E-2,-2.120532E-2,8.352866E-2,-6.3697784E-3,-5.900443E-1,3.9730173E-1,4.596014E-2,1.3580323E-3,-9.902466E-2,-1.8240313E-1,-5.444713E-2,5.2705284E-2,3.2074767E-1,8.3157216E-4,1.069826E-1],"categories":[],"categories_nodes":[],"categories_segments":[],"categories_sizes":[],"default_left":[0,0,0,0,0,0,0,0,0,0,0,0,0,0,0],"id":52,"left_children":[1,3,5,7,9,11,13,-1,-1,-1,-1,-1,-1,-1,-1],"loss_changes":[2.9188693E0,6.3079486E0,4.870571E0,5.0350814E0,2.1144733E0,6.8729887E0,7.896384E0,0E0,0E0,0E0,0E0,0E0,0E0,0E0,0E0],"parents":[2147483647,0,0,1,1,2,2,3,3,4,4,5,5,6,6],"right_children":[2,4,6,8,10,12,14,-1,-1,-1,-1,-1,-1,-1,-1],"split_conditions":[2.9357754E1,2.861046E1,3.1373005E1,5.5E1,1.1164677E2,1E0,1E0,1.3580323E-3,-9.902466E-2,-1.8240313E-1,-5.444713E-2,5.2705284E-2,3.2074767E-1,8.3157216E-4,1.069826E-1],"split_indices":[6,6,6,10,11,7,14,0,0,0,0,0,0,0,0],"split_type":[0,0,0,0,0,0,0,0,0,0,0,0,0,0,0],"sum_hessian":[1.1603174E3,7.47225E2,4.1309235E2,7.282389E2,1.8986115E1,4.41607E1,3.6893164E2,7.0955615E2,1.8682741E1,8.632706E0,1.0353408E1,4.0348263E1,3.812436E0,3.413281E2,2.7603533E1],"tree_param":{"num_deleted":"0","num_feature":"39","num_nodes":"15","size_leaf_vector":"1"}},{"base_weights":[-3.238428E-2,-2.6757304E-2,-6.312611E-1,-3.076012E-2,3.486931E-1,-1.916701E-1,6.633119E-2,-1.4035719E-3,-3.4671616E-2],"categories":[],"categories_nodes":[],"categories_segments":[],"categories_sizes":[],"default_left":[0,0,0,0,0,0,0,0,0],"id":53,"left_children":[1,3,5,7,-1,-1,-1,-1,-1],"loss_changes":[3.891323E0,8.487085E0,3.9223223E0,4.0284905E0,0E0,0E0,0E0,0E0,0E0],"parents":[2147483647,0,0,1,1,2,2,3,3],"right_children":[2,4,6,8,-1,-1,-1,-1,-1],"split_conditions":[6.2625874E1,5.9413803E1,1.59E2,1E0,3.486931E-1,-1.916701E-1,6.633119E-2,-1.4035719E-3,-3.4671616E-2],"split_indices":[5,5,5,25,0,0,0,0,0],"split_type":[0,0,0,0,0,0,0,0,0],"sum_hessian":[1.1540767E3,1.1433403E3,1.0736384E1,1.1408777E3,2.4625702E0,7.7789803E0,2.9574044E0,9.8761237E2,1.5326538E2],"tree_param":{"num_deleted":"0","num_feature":"39","num_nodes":"9","size_leaf_vector":"1"}},{"base_weights":[-7.102811E-3,-1.9664751E-2,3.613505E-1,-1.7107036E-2,-2.5830835E-1,-8.736911E-2,7.949631E-1,2.6467463E-2,-5.9796073E-3,8.231458E-2,-1.6682054E-1,2.2887093E-1,-1.537978E-1],"categories":[],"categories_nodes":[],"categories_segments":[],"categories_sizes":[],"default_left":[0,0,0,0,0,0,0,0,0,0,0,0,0],"id":54,"left_children":[1,3,5,7,-1,9,11,-1,-1,-1,-1,-1,-1],"loss_changes":[5.360004E0,3.8224719E0,7.431325E0,2.4732203E0,0E0,7.654143E0,1.2550869E1,0E0,0E0,0E0,0E0,0E0,0E0],"parents":[2147483647,0,0,1,1,2,2,3,3,5,5,6,6],"right_children":[2,4,6,8,-1,10,12,-1,-1,-1,-1,-1,-1],"split_conditions":[5.1E1,1E0,2.3198591E1,1.37E2,-2.5830835E-1,7.18E2,4.9267895E1,2.6467463E-2,-5.9796073E-3,8.231458E-2,-1.6682054E-1,2.2887093E-1,-1.537978E-1],"split_indices":[10,30,6,1,0,1,6,0,0,0,0,0,0],"split_type":[0,0,0,0,0,0,0,0,0,0,0,0,0],"sum_hessian":[1.1577148E3,1.1195553E3,3.8159542E1,1.1174143E3,2.1410007E0,1.8748816E1,1.9410728E1,9.341303E1,1.0240012E3,1.1295835E1,7.4529805E0,1.5502845E1,3.9078834E0],"tree_param":{"num_deleted":"0","num_feature":"39","num_nodes":"13","size_leaf_vector":"1"}},{"base_weights":[-2.2768562E-3,-2.3024654E-2,1.4207992E-1,-1.4573328E-2,-4.48532E-1,2.1345092E-1,-3.939702E-1,-4.426788E-3,7.450455E-2,1.8268654E-1,-1.2095175E-1,-2.9980643E-2,6.40867E-2,1.4550833E-2,-1.7535397E-1],"categories":[],"categories_nodes":[],"categories_segments":[],"categories_sizes":[],"default_left":[0,0,0,0,0,0,0,0,0,0,0,0,0,0,0],"id":55,"left_children":[1,3,5,7,9,11,13,-1,-1,-1,-1,-1,-1,-1,-1],"loss_changes":[3.448674E0,3.6212072E0,5.53654E0,3.4413786E0,5.098938E0,5.7807975E0,4.196369E0,0E0,0E0,0E0,0E0,0E0,0E0,0E0,0E0],"parents":[2147483647,0,0,1,1,2,2,3,3,4,4,5,5,6,6],"right_children":[2,4,6,8,10,12,14,-1,-1,-1,-1,-1,-1,-1,-1],"split_conditions":[3E1,2.8E1,1E0,2.6E1,9.055386E0,1.2529964E1,1.469728E2,-4.426788E-3,7.450455E-2,1.8268654E-1,-1.2095175E-1,-2.9980643E-2,6.40867E-2,1.4550833E-2,-1.7535397E-1],"split_indices":[10,10,25,10,5,5,11,0,0,0,0,0,0,0,0],"split_type":[0,0,0,0,0,0,0,0,0,0,0,0,0,0,0],"sum_hessian":[1.1511838E3,1.0065437E3,1.4464018E2,9.8695E2,1.9593695E1,1.27651405E2,1.6988773E1,9.664013E2,2.0548704E1,2.2760227E0,1.731767E1,3.1651299E1,9.600011E1,8.953608E0,8.035165E0],"tree_param":{"num_deleted":"0","num_feature":"39","num_nodes":"15","size_leaf_vector":"1"}},{"base_weights":[1.6359897E-2,7.622411E-2,-3.8708095E-2,2.5764802E-1,-2.4314253E-3,-8.964294E-2,1.516902E-1,5.880984E-3,8.0445625E-2,-9.8873146E-2,6.5307864E-3,-1.2380644E-2,-1.0437341E-1,3.739723E-2,-2.1799092E-1],"categories":[],"categories_nodes":[],"categories_segments":[],"categories_sizes":[],"default_left":[0,0,0,0,0,0,0,0,0,0,0,0,0,0,0],"id":56,"left_children":[1,3,5,7,9,11,13,-1,-1,-1,-1,-1,-1,-1,-1],"loss_changes":[3.7674632E0,7.814811E0,5.772414E0,6.147296E0,7.216283E0,5.3233266E0,7.1787224E0,0E0,0E0,0E0,0E0,0E0,0E0,0E0,0E0],"parents":[2147483647,0,0,1,1,2,2,3,3,4,4,5,5,6,6],"right_children":[2,4,6,8,10,12,14,-1,-1,-1,-1,-1,-1,-1,-1],"split_conditions":[1E0,1.6313852E1,1E0,5.079608E0,1.09E2,5.1519802E1,4.6E1,5.880984E-3,8.0445625E-2,-9.8873146E-2,6.5307864E-3,-1.2380644E-2,-1.0437341E-1,3.739723E-2,-2.1799092E-1],"split_indices":[4,6,25,6,1,6,10,0,0,0,0,0,0,0,0],"split_type":[0,0,0,0,0,0,0,0,0,0,0,0,0,0,0],"sum_hessian":[1.1425636E3,5.4747455E2,5.95089E2,1.6558662E2,3.8188794E2,4.6950745E2,1.25581566E2,6.940592E1,9.61807E1,2.5350534E1,3.5653738E2,4.4534372E2,2.4163725E1,1.2143762E2,4.1439457E0],"tree_param":{"num_deleted":"0","num_feature":"39","num_nodes":"15","size_leaf_vector":"1"}},{"base_weights":[-2.982026E-2,-1.0523527E-2,-2.7437782E-1,-3.2309208E-2,2.0680773E-1,-3.681542E-1,2.8970975E-1,-3.613784E-3,-5.8282673E-2,6.992253E-2,-6.434797E-2,-1.3368897E-1,-3.81726E-2,1.4600947E-1,-1.9540459E-1],"categories":[],"categories_nodes":[],"categories_segments":[],"categories_sizes":[],"default_left":[0,0,0,0,0,0,0,0,0,0,0,0,0,0,0],"id":57,"left_children":[1,3,5,7,9,11,13,-1,-1,-1,-1,-1,-1,-1,-1],"loss_changes":[5.4966173E0,5.111756E0,4.5077267E0,3.584516E0,8.526598E0,4.079236E0,7.577177E0,0E0,0E0,0E0,0E0,0E0,0E0,0E0,0E0],"parents":[2147483647,0,0,1,1,2,2,3,3,4,4,5,5,6,6],"right_children":[2,4,6,8,10,12,14,-1,-1,-1,-1,-1,-1,-1,-1],"split_conditions":[4.0311287E1,3.206244E1,1E0,1E0,2.5E1,3.97E2,3.563981E1,-3.613784E-3,-5.8282673E-2,6.992253E-2,-6.434797E-2,-1.3368897E-1,-3.81726E-2,1.4600947E-1,-1.9540459E-1],"split_indices":[5,5,16,17,10,1,6,0,0,0,0,0,0,0,0],"split_type":[0,0,0,0,0,0,0,0,0,0,0,0,0,0,0],"sum_hessian":[1.164564E3,1.079409E3,8.515497E1,9.8108105E2,9.832797E1,7.302215E1,1.2132825E1,9.352348E2,4.5846283E1,7.604611E1,2.2281862E1,2.45511E1,4.8471046E1,8.912037E0,3.220788E0],"tree_param":{"num_deleted":"0","num_feature":"39","num_nodes":"15","size_leaf_vector":"1"}},{"base_weights":[2.8403189E-2,2.7619156E-1,1.7380055E-2,1.01127036E-1,7.642248E-1,6.270619E-3,2.18846E-1,-1.92983E-2,1.5439448E-1,2.1477294E-1,2.7051896E-2,1.0842892E-2,-6.848843E-3,5.6702625E-2,-1.6256143E-1],"categories":[],"categories_nodes":[],"categories_segments":[],"categories_sizes":[],"default_left":[0,0,0,0,0,0,0,0,0,0,0,0,0,0,0],"id":58,"left_children":[1,3,5,7,9,11,13,-1,-1,-1,-1,-1,-1,-1,-1],"loss_changes":[3.1627269E0,4.2122617E0,2.481278E0,5.1986976E0,2.9187756E0,2.2366786E0,4.845582E0,0E0,0E0,0E0,0E0,0E0,0E0,0E0,0E0],"parents":[2147483647,0,0,1,1,2,2,3,3,4,4,5,5,6,6],"right_children":[2,4,6,8,10,12,14,-1,-1,-1,-1,-1,-1,-1,-1],"split_conditions":[7.071068E0,1E0,4.5E1,2.1E1,3E0,6E0,1E0,-1.92983E-2,1.5439448E-1,2.1477294E-1,2.7051896E-2,1.0842892E-2,-6.848843E-3,5.6702625E-2,-1.6256143E-1],"split_indices":[5,7,10,10,0,10,19,0,0,0,0,0,0,0,0],"split_type":[0,0,0,0,0,0,0,0,0,0,0,0,0,0,0],"sum_hessian":[1.157585E3,4.928853E1,1.1082965E3,3.628155E1,1.3006975E1,1.0503933E3,5.79031E1,2.821287E1,8.068682E0,8.232626E0,4.7743497E0,4.77758E2,5.726354E2,5.3967506E1,3.9355905E0],"tree_param":{"num_deleted":"0","num_feature":"39","num_nodes":"15","size_leaf_vector":"1"}},{"base_weights":[4.387085E-3,5.73674E-2,-8.700734E-2,2.9084662E-1,7.4662487E-3,-1.0771674E-1,4.4953412E-1,-2.6112305E-2,8.374479E-2,-7.7697076E-3,3.663402E-2,-1.733162E-2,-1.3519047E-1,2.348691E-2,4.151835E-1],"categories":[],"categories_nodes":[],"categories_segments":[],"categories_sizes":[],"default_left":[0,0,0,0,0,0,0,0,0,0,0,0,0,0,0],"id":59,"left_children":[1,3,5,7,9,11,13,-1,-1,-1,-1,-1,-1,-1,-1],"loss_changes":[5.5980763E0,8.526475E0,4.715276E0,8.14291E0,5.3561654E0,4.157264E0,8.879532E0,0E0,0E0,0E0,0E0,0E0,0E0,0E0,0E0],"parents":[2147483647,0,0,1,1,2,2,3,3,4,4,5,5,6,6],"right_children":[2,4,6,8,10,12,14,-1,-1,-1,-1,-1,-1,-1,-1],"split_conditions":[2.1633308E1,1E0,5.8077534E1,2E0,1E0,1E0,1E0,-2.6112305E-2,8.374479E-2,-7.7697076E-3,3.663402E-2,-1.733162E-2,-1.3519047E-1,2.348691E-2,4.151835E-1],"split_indices":[5,4,5,0,25,25,16,0,0,0,0,0,0,0,0],"split_type":[0,0,0,0,0,0,0,0,0,0,0,0,0,0,0],"sum_hessian":[1.1559294E3,7.317712E2,4.241582E2,1.2884607E2,6.029251E2,4.0840176E2,1.5756439E1,3.3079193E1,9.5766884E1,4.7805228E2,1.2487283E2,3.9719412E2,1.120766E1,1.3250242E1,2.5061967E0],"tree_param":{"num_deleted":"0","num_feature":"39","num_nodes":"15","size_leaf_vector":"1"}},{"base_weights":[1.3227256E-3,6.660902E-3,-6.304458E-1,1.9843786E-4,4.9640632E-1,-1.9357851E-1,-1.1605786E-3,4.896547E-4,-1.9148076E-1,5.4908667E-2,2.5451896E-1],"categories":[],"categories_nodes":[],"categories_segments":[],"categories_sizes":[],"default_left":[0,0,0,0,0,0,0,0,0,0,0],"id":60,"left_children":[1,3,5,7,9,-1,-1,-1,-1,-1,-1],"loss_changes":[3.8573496E0,3.5892205E0,2.290055E0,2.6586406E0,2.5800488E0,0E0,0E0,0E0,0E0,0E0,0E0],"parents":[2147483647,0,0,1,1,2,2,3,3,4,4],"right_children":[2,4,6,8,10,-1,-1,-1,-1,-1,-1],"split_conditions":[1.193E3,1.173E3,1E0,1.6300307E2,2.8301943E1,-1.9357851E-1,-1.1605786E-3,4.896547E-4,-1.9148076E-1,5.4908667E-2,2.5451896E-1],"split_indices":[1,1,3,5,5,0,0,0,0,0,0],"split_type":[0,0,0,0,0,0,0,0,0,0,0],"sum_hessian":[1.1430432E3,1.1334718E3,9.571381E0,1.1187174E3,1.4754391E1,5.9265037E0,3.644877E0,1.1160885E3,2.6289244E0,1.1810483E1,2.943908E0],"tree_param":{"num_deleted":"0","num_feature":"39","num_nodes":"11","size_leaf_vector":"1"}},{"base_weights":[-1.5353819E-4,4.6278443E-2,-1.1793455E-1,2.4303025E-2,2.740864E-1,-1.9454741E-1,-1.0291322E-1,-1.8770035E-4,4.4286747E-2,-4.442761E-3,9.969332E-2,1.988542E-3,-3.884138E-2],"categories":[],"categories_nodes":[],"categories_segments":[],"categories_sizes":[],"default_left":[0,0,0,0,0,0,0,0,0,0,0,0,0],"id":61,"left_children":[1,3,5,7,9,-1,11,-1,-1,-1,-1,-1,-1],"loss_changes":[6.2802386E0,4.12309E0,4.3969927E0,3.9454615E0,5.345704E0,0E0,3.638786E0,0E0,0E0,0E0,0E0,0E0,0E0],"parents":[2147483647,0,0,1,1,2,2,3,3,4,4,6,6],"right_children":[2,4,6,8,10,-1,12,-1,-1,-1,-1,-1,-1],"split_conditions":[8.5E2,3.6E1,8.55E2,7.58E2,1.9653824E1,-1.9454741E-1,1.11085556E2,-1.8770035E-4,4.4286747E-2,-4.442761E-3,9.969332E-2,1.988542E-3,-3.884138E-2],"split_indices":[1,10,1,1,6,0,11,0,0,0,0,0,0],"split_type":[0,0,0,0,0,0,0,0,0,0,0,0,0],"sum_hessian":[1.1480988E3,8.2344556E2,3.2465323E2,7.510156E2,7.242991E1,5.3200207E0,3.193332E2,6.694684E2,8.154724E1,3.2932365E1,3.9497543E1,1.500749E2,1.692583E2],"tree_param":{"num_deleted":"0","num_feature":"39","num_nodes":"13","size_leaf_vector":"1"}},{"base_weights":[1.3681299E-2,1.8445473E-2,-5.342611E-1,-2.2522993E-2,8.011574E-2,1.1288569E-2,-7.3840743E-1,8.515152E-3,-2.5479915E-2,3.1056073E-1,1.2248472E-2,-5.131285E-2,-1.7578815E-1],"categories":[],"categories_nodes":[],"categories_segments":[],"categories_sizes":[],"default_left":[0,0,0,0,0,0,0,0,0,0,0,0,0],"id":62,"left_children":[1,3,5,7,9,-1,11,-1,-1,-1,-1,-1,-1],"loss_changes":[3.012227E0,2.8890545E0,1.2077286E0,5.1147013E0,1.1273709E1,0E0,6.317959E-1,0E0,0E0,0E0,0E0,0E0,0E0],"parents":[2147483647,0,0,1,1,2,2,3,3,4,4,6,6],"right_children":[2,4,6,8,10,-1,12,-1,-1,-1,-1,-1,-1],"split_conditions":[1.193E3,7.14E2,-1E0,4.66E2,7.18E2,1.1288569E-2,1.2083046E1,8.515152E-3,-2.5479915E-2,3.1056073E-1,1.2248472E-2,-5.131285E-2,-1.7578815E-1],"split_indices":[1,1,2,1,1,0,5,0,0,0,0,0,0],"split_type":[0,0,0,0,0,0,0,0,0,0,0,0,0],"sum_hessian":[1.1530789E3,1.1431465E3,9.932379E0,6.8682043E2,4.563261E2,2.537696E0,7.3946834E0,4.278756E2,2.589448E2,4.6617165E0,4.5166437E2,2.0728204E0,5.3218627E0],"tree_param":{"num_deleted":"0","num_feature":"39","num_nodes":"13","size_leaf_vector":"1"}},{"base_weights":[4.2859563E-3,4.3315876E-2,-9.537081E-2,2.919105E-1,2.037328E-2,-3.239788E-1,-1.2445836E-2,-6.234388E-2,7.6500535E-2,3.1329446E-2,-4.9569597E-3,-8.0636196E-2,1.3886822E-2,6.410586E-2,-1.6260413E-2],"categories":[],"categories_nodes":[],"categories_segments":[],"categories_sizes":[],"default_left":[0,0,0,0,0,0,0,0,0,0,0,0,0,0,0],"id":63,"left_children":[1,3,5,7,9,11,13,-1,-1,-1,-1,-1,-1,-1,-1],"loss_changes":[4.462481E0,4.702098E0,6.1197586E0,4.6858435E0,5.0265656E0,3.3536348E0,5.999227E0,0E0,0E0,0E0,0E0,0E0,0E0,0E0,0E0],"parents":[2147483647,0,0,1,1,2,2,3,3,4,4,5,5,6,6],"right_children":[2,4,6,8,10,12,14,-1,-1,-1,-1,-1,-1,-1,-1],"split_conditions":[8.45E2,2.726311E0,1.0007979E1,-1E0,1.0770329E1,1E0,1.6313852E1,-6.234388E-2,7.6500535E-2,3.1329446E-2,-4.9569597E-3,-8.0636196E-2,1.3886822E-2,6.410586E-2,-1.6260413E-2],"split_indices":[1,6,6,2,5,16,6,0,0,0,0,0,0,0,0],"split_type":[0,0,0,0,0,0,0,0,0,0,0,0,0,0,0],"sum_hessian":[1.1470762E3,8.242873E2,3.2278885E2,6.96314E1,7.546559E2,8.590897E1,2.3687988E2,1.0407229E1,5.9224167E1,1.8401472E2,5.706412E2,6.885286E1,1.7056116E1,4.0914074E1,1.959658E2],"tree_param":{"num_deleted":"0","num_feature":"39","num_nodes":"15","size_leaf_vector":"1"}},{"base_weights":[1.2949164E-2,-1.0797358E-2,1.9396159E-1,5.6322706E-3,-1.650702E-1,2.2494833E-1,-7.4063337E-1,-3.933709E-3,2.9401109E-2,-7.6796725E-2,5.4903543E-3,4.874972E-2,-1.4536129E-1,-2.3715326E-1,-4.4532105E-2],"categories":[],"categories_nodes":[],"categories_segments":[],"categories_sizes":[],"default_left":[0,0,0,0,0,0,0,0,0,0,0,0,0,0,0],"id":64,"left_children":[1,3,5,7,9,11,13,-1,-1,-1,-1,-1,-1,-1,-1],"loss_changes":[4.944697E0,2.5782378E0,3.866303E0,3.576788E0,4.500965E0,3.869666E0,1.0878432E0,0E0,0E0,0E0,0E0,0E0,0E0,0E0,0E0],"parents":[2147483647,0,0,1,1,2,2,3,3,4,4,5,5,6,6],"right_children":[2,4,6,8,10,12,14,-1,-1,-1,-1,-1,-1,-1,-1],"split_conditions":[1E0,3.4E1,1E0,1.8E1,1.6492422E1,4.7010635E1,2.6995838E1,-3.933709E-3,2.9401109E-2,-7.6796725E-2,5.4903543E-3,4.874972E-2,-1.4536129E-1,-2.3715326E-1,-4.4532105E-2],"split_indices":[32,10,23,10,5,5,6,0,0,0,0,0,0,0,0],"split_type":[0,0,0,0,0,0,0,0,0,0,0,0,0,0,0],"sum_hessian":[1.1498553E3,1.0164846E3,1.3337068E2,9.186287E2,9.785588E1,1.2909456E2,4.2761245E0,7.805668E2,1.38062E2,4.402032E1,5.3835556E1,1.25242676E2,3.8518875E0,2.1471071E0,2.1290174E0],"tree_param":{"num_deleted":"0","num_feature":"39","num_nodes":"15","size_leaf_vector":"1"}},{"base_weights":[-2.5602806E-2,6.037553E-2,-5.5817433E-2,-1.5363398E-1,1.75271E-1,-1.1830711E-1,1.5450317E-2,-1.6383396E-2,-1.4183861E-1,3.939404E-2,-9.13768E-2,-1.323469E-1,-1.9907244E-2,7.393707E-4,1.66842E-1],"categories":[],"categories_nodes":[],"categories_segments":[],"categories_sizes":[],"default_left":[0,0,0,0,0,0,0,0,0,0,0,0,0,0,0],"id":65,"left_children":[1,3,5,7,9,11,13,-1,-1,-1,-1,-1,-1,-1,-1],"loss_changes":[2.9785495E0,7.330817E0,3.7786865E0,4.162688E0,3.9391685E0,3.6523561E0,3.9412186E0,0E0,0E0,0E0,0E0,0E0,0E0,0E0,0E0],"parents":[2147483647,0,0,1,1,2,2,3,3,4,4,5,5,6,6],"right_children":[2,4,6,8,10,12,14,-1,-1,-1,-1,-1,-1,-1,-1],"split_conditions":[4E0,1.118034E1,1.2975746E2,1.1060289E2,1.3238202E2,-3E0,4.5453274E1,-1.6383396E-2,-1.4183861E-1,3.939404E-2,-9.13768E-2,-1.323469E-1,-1.9907244E-2,7.393707E-4,1.66842E-1],"split_indices":[10,5,11,11,11,2,5,0,0,0,0,0,0,0,0],"split_type":[0,0,0,0,0,0,0,0,0,0,0,0,0,0,0],"sum_hessian":[1.146308E3,2.9805154E2,8.482564E2,1.0410605E2,1.939455E2,4.519906E2,3.962658E2,9.336394E1,1.0742108E1,1.851603E2,8.785192E0,1.0777512E1,4.4121307E2,3.90996E2,5.269797E0],"tree_param":{"num_deleted":"0","num_feature":"39","num_nodes":"15","size_leaf_vector":"1"}},{"base_weights":[1.863794E-2,2.1652594E-2,-1.6279507E-1,2.3912493E-2,-1.9964443E-1,3.961393E-3,3.2500103E-1],"categories":[],"categories_nodes":[],"categories_segments":[],"categories_sizes":[],"default_left":[0,0,0,0,0,0,0],"id":66,"left_children":[1,3,-1,5,-1,-1,-1],"loss_changes":[3.0341716E0,2.7776537E0,0E0,6.103542E0,0E0,0E0,0E0],"parents":[2147483647,0,0,1,1,3,3],"right_children":[2,4,-1,6,-1,-1,-1],"split_conditions":[8.2E1,8.38845E1,-1.6279507E-1,8.1869896E1,-1.9964443E-1,3.961393E-3,3.2500103E-1],"split_indices":[10,6,0,6,0,0,0],"split_type":[0,0,0,0,0,0,0],"sum_hessian":[1.1539784E3,1.1500034E3,3.9749696E0,1.1475769E3,2.4265127E0,1.1454182E3,2.1586816E0],"tree_param":{"num_deleted":"0","num_feature":"39","num_nodes":"7","size_leaf_vector":"1"}},{"base_weights":[1.39943985E-2,-3.3522137E-2,7.083826E-2,-1.6481673E-2,-2.9427665E-1,4.914435E-1,4.6697464E-2,1.0801095E-2,-1.5163246E-2,3.813354E-2,-9.1260664E-2,1.6832083E-1,3.750846E-2,1.1897999E-2,-8.809319E-2],"categories":[],"categories_nodes":[],"categories_segments":[],"categories_sizes":[],"default_left":[0,0,0,0,0,0,0,0,0,0,0,0,0,0,0],"id":67,"left_children":[1,3,5,7,9,11,13,-1,-1,-1,-1,-1,-1,-1,-1],"loss_changes":[3.1595333E0,2.8311245E0,5.408371E0,2.749503E0,3.547726E0,3.3255448E0,3.9971695E0,0E0,0E0,0E0,0E0,0E0,0E0,0E0,0E0],"parents":[2147483647,0,0,1,1,2,2,3,3,4,4,5,5,6,6],"right_children":[2,4,6,8,10,12,14,-1,-1,-1,-1,-1,-1,-1,-1],"split_conditions":[6.51E2,6.14E2,7.2111025E0,1.9653824E1,4E0,8.68E2,1E0,1.0801095E-2,-1.5163246E-2,3.813354E-2,-9.1260664E-2,1.6832083E-1,3.750846E-2,1.1897999E-2,-8.809319E-2],"split_indices":[1,1,5,6,10,1,33,0,0,0,0,0,0,0,0],"split_type":[0,0,0,0,0,0,0,0,0,0,0,0,0,0,0],"sum_hessian":[1.1694493E3,6.3694885E2,5.325004E2,5.978908E2,3.905804E1,2.8895601E1,5.0360483E2,2.7667355E2,3.2121725E2,1.0580599E1,2.847744E1,1.2437247E1,1.6458353E1,4.88596E2,1.5008821E1],"tree_param":{"num_deleted":"0","num_feature":"39","num_nodes":"15","size_leaf_vector":"1"}},{"base_weights":[9.805765E-3,3.429846E-2,-9.7991675E-2,1.7454214E-2,3.456608E-1,-4.3587673E-2,-4.0576196E-1,2.7333822E-3,2.515381E-1,8.74679E-2,-1.5104048E-1,-1.7701767E-2,7.610583E-2,1.7332509E-1,-1.0820914E-1],"categories":[],"categories_nodes":[],"categories_segments":[],"categories_sizes":[],"default_left":[0,0,0,0,0,0,0,0,0,0,0,0,0,0,0],"id":68,"left_children":[1,3,5,7,9,11,13,-1,-1,-1,-1,-1,-1,-1,-1],"loss_changes":[3.048932E0,4.935316E0,3.5795627E0,3.646795E0,6.174295E0,3.9470663E0,6.791634E0,0E0,0E0,0E0,0E0,0E0,0E0,0E0,0E0],"parents":[2147483647,0,0,1,1,2,2,3,3,4,4,5,5,6,6],"right_children":[2,4,6,8,10,12,14,-1,-1,-1,-1,-1,-1,-1,-1],"split_conditions":[3.9986885E1,1E0,1E0,1.59E2,1.5692355E2,7.156505E1,6.4031243E0,2.7333822E-3,2.515381E-1,8.74679E-2,-1.5104048E-1,-1.7701767E-2,7.610583E-2,1.7332509E-1,-1.0820914E-1],"split_indices":[6,19,25,5,11,6,5,0,0,0,0,0,0,0,0],"split_type":[0,0,0,0,0,0,0,0,0,0,0,0,0,0,0],"sum_hessian":[1.1545299E3,9.408044E2,2.1372548E2,8.9253186E2,4.8272537E1,1.8163113E2,3.209434E1,8.903846E2,2.1472354E0,4.39309E1,4.3416357E0,1.634791E2,1.8152033E1,3.5007973E0,2.8593544E1],"tree_param":{"num_deleted":"0","num_feature":"39","num_nodes":"15","size_leaf_vector":"1"}},{"base_weights":[-3.3519987E-2,-2.9041903E-2,-6.516138E-1,-3.5038672E-2,4.5458344E-1,-2.2288693E-1,-2.5023356E-1,-5.795779E-3,-1.10614374E-1,2.9581675E-1,4.891366E-2,-1.3375589E-1,4.6863344E-2],"categories":[],"categories_nodes":[],"categories_segments":[],"categories_sizes":[],"default_left":[0,0,0,0,0,0,0,0,0,0,0,0,0],"id":69,"left_children":[1,3,5,7,9,-1,11,-1,-1,-1,-1,-1,-1],"loss_changes":[3.2404385E0,3.3704216E0,1.740932E0,2.9275796E0,3.0914466E0,0E0,1.0631979E0,0E0,0E0,0E0,0E0,0E0,0E0],"parents":[2147483647,0,0,1,1,2,2,3,3,4,4,6,6],"right_children":[2,4,6,8,10,-1,12,-1,-1,-1,-1,-1,-1],"split_conditions":[7.2E1,6E1,8.1E1,7.869007E1,1.96E2,-2.2288693E-1,1E0,-5.795779E-3,-1.10614374E-1,2.9581675E-1,4.891366E-2,-1.3375589E-1,4.6863344E-2],"split_indices":[10,10,10,6,1,0,3,0,0,0,0,0,0],"split_type":[0,0,0,0,0,0,0,0,0,0,0,0,0],"sum_hessian":[1.1698937E3,1.1614847E3,8.408841E0,1.147267E3,1.4217867E1,3.6762674E0,4.7325735E0,1.137482E3,9.784854E0,2.1787288E0,1.2039138E1,2.4838398E0,2.248734E0],"tree_param":{"num_deleted":"0","num_feature":"39","num_nodes":"13","size_leaf_vector":"1"}},{"base_weights":[1.5377315E-2,5.6224227E-2,-7.7367105E-2,2.1290652E-2,2.2439988E-1,-2.3976697E-1,-6.6005565E-2,8.854538E-3,-3.3892844E-2,1.882358E-2,8.475672E-2,-8.387453E-2,-5.4737213E-3],"categories":[],"categories_nodes":[],"categories_segments":[],"categories_sizes":[],"default_left":[0,0,0,0,0,0,0,0,0,0,0,0,0],"id":70,"left_children":[1,3,5,7,9,-1,11,-1,-1,-1,-1,-1,-1],"loss_changes":[4.3240366E0,4.655205E0,4.6754227E0,3.2721477E0,3.762939E0,0E0,4.8175707E0,0E0,0E0,0E0,0E0,0E0,0E0],"parents":[2147483647,0,0,1,1,2,2,3,3,4,4,6,6],"right_children":[2,4,6,8,10,-1,12,-1,-1,-1,-1,-1,-1],"split_conditions":[8.16E2,6.91E2,8.2E2,6.14E2,2.998164E1,-2.3976697E-1,3.094058E0,8.854538E-3,-3.3892844E-2,1.882358E-2,8.475672E-2,-8.387453E-2,-5.4737213E-3],"split_indices":[1,1,1,1,6,0,6,0,0,0,0,0,0],"split_type":[0,0,0,0,0,0,0,0,0,0,0,0,0],"sum_hessian":[1.1411971E3,7.922928E2,3.489044E2,6.5604175E2,1.3625102E2,3.328852E0,3.4557553E2,5.825584E2,7.3483315E1,8.6616295E1,4.9634735E1,3.1416594E1,3.1415894E2],"tree_param":{"num_deleted":"0","num_feature":"39","num_nodes":"13","size_leaf_vector":"1"}},{"base_weights":[-2.6127473E-2,-2.4252227E-1,-4.565244E-3,-5.5703245E-2,-7.345634E-1,7.443867E-2,-6.831907E-2,-3.3172E-2,1.7325726E-1,-1.6756941E-1,-4.2843282E-2,5.8740396E-2,6.9972454E-3,-4.264084E-2,-3.8594084E-3],"categories":[],"categories_nodes":[],"categories_segments":[],"categories_sizes":[],"default_left":[0,0,0,0,0,0,0,0,0,0,0,0,0,0,0],"id":71,"left_children":[1,3,5,7,9,11,13,-1,-1,-1,-1,-1,-1,-1,-1],"loss_changes":[5.4200745E0,9.674083E0,5.321068E0,8.675014E0,2.11129E0,4.1576595E0,4.359145E0,0E0,0E0,0E0,0E0,0E0,0E0,0E0,0E0],"parents":[2147483647,0,0,1,1,2,2,3,3,4,4,5,5,6,6],"right_children":[2,4,6,8,10,12,14,-1,-1,-1,-1,-1,-1,-1,-1],"split_conditions":[2E0,3.3734257E1,7E0,2.6476404E1,1.09457756E2,-1E0,3.06E2,-3.3172E-2,1.7325726E-1,-1.6756941E-1,-4.2843282E-2,5.8740396E-2,6.9972454E-3,-4.264084E-2,-3.8594084E-3],"split_indices":[10,11,10,11,11,2,1,0,0,0,0,0,0,0,0],"split_type":[0,0,0,0,0,0,0,0,0,0,0,0,0,0,0],"sum_hessian":[1.1614642E3,1.05229004E2,1.0562352E3,7.6276054E1,2.8952946E1,4.7167502E2,5.845602E2,6.79525E1,8.323554E0,2.260771E1,6.3452373E0,6.576764E1,4.0590738E2,1.3843835E2,4.4612183E2],"tree_param":{"num_deleted":"0","num_feature":"39","num_nodes":"15","size_leaf_vector":"1"}},{"base_weights":[1.4847956E-2,4.70678E-2,-1.1978012E-1,8.272774E-2,-1.3828485E-1,-2.1392503E-1,4.4474503E-1,1.3998825E-2,3.098655E-1,-1.1405626E-1,-1.0463359E-2,-1.5593605E-1,-3.2556042E-2,1.9162233E-1,2.03625E-2],"categories":[],"categories_nodes":[],"categories_segments":[],"categories_sizes":[],"default_left":[0,0,0,0,0,0,0,0,0,0,0,0,0,0,0],"id":72,"left_children":[1,3,5,7,9,11,13,-1,-1,-1,-1,-1,-1,-1,-1],"loss_changes":[4.9975176E0,6.1447215E0,1.1824297E1,1.1307286E1,5.7482953E0,4.9916553E0,6.0062623E0,0E0,0E0,0E0,0E0,0E0,0E0,0E0,0E0],"parents":[2147483647,0,0,1,1,2,2,3,3,4,4,5,5,6,6],"right_children":[2,4,6,8,10,12,14,-1,-1,-1,-1,-1,-1,-1,-1],"split_conditions":[1E0,3.2280025E1,3.138471E1,3.206244E1,3.4176014E1,2.5179358E1,2.022486E1,1.3998825E-2,3.098655E-1,-1.1405626E-1,-1.0463359E-2,-1.5593605E-1,-3.2556042E-2,1.9162233E-1,2.03625E-2],"split_indices":[16,5,5,5,5,11,6,0,0,0,0,0,0,0,0],"split_type":[0,0,0,0,0,0,0,0,0,0,0,0,0,0,0],"sum_hessian":[1.151912E3,9.294899E2,2.2242198E2,7.795357E2,1.4995427E2,1.9063655E2,3.1785444E1,7.7480225E2,4.733414E0,2.3068415E1,1.2688585E2,1.2805398E1,1.7783115E2,1.1977693E1,1.9807753E1],"tree_param":{"num_deleted":"0","num_feature":"39","num_nodes":"15","size_leaf_vector":"1"}},{"base_weights":[-8.215395E-3,3.8597293E-2,-6.283831E-2,-3.8215324E-2,1.3197762E-1,-7.554184E-2,9.5064336E-1,1.6553286E-1,-1.15304105E-2,-9.8476775E-2,2.936908E-2,-1.9669528E-3,-4.953302E-2,3.4057283E-1,-7.1667777E-3],"categories":[],"categories_nodes":[],"categories_segments":[],"categories_sizes":[],"default_left":[0,0,0,0,0,0,0,0,0,0,0,0,0,0,0],"id":73,"left_children":[1,3,5,7,9,11,13,-1,-1,-1,-1,-1,-1,-1,-1],"loss_changes":[2.9241245E0,4.416905E0,6.797311E0,6.7814856E0,3.9320765E0,6.2516994E0,5.3868623E0,0E0,0E0,0E0,0E0,0E0,0E0,0E0,0E0],"parents":[2147483647,0,0,1,1,2,2,3,3,4,4,5,5,6,6],"right_children":[2,4,6,8,10,12,14,-1,-1,-1,-1,-1,-1,-1,-1],"split_conditions":[1.8110771E1,2.20679E1,7.289727E1,-3E0,7.1E1,3.4045937E1,5.97E2,1.6553286E-1,-1.15304105E-2,-9.8476775E-2,2.936908E-2,-1.9669528E-3,-4.953302E-2,3.4057283E-1,-7.1667777E-3],"split_indices":[5,6,6,2,1,6,1,0,0,0,0,0,0,0,0],"split_type":[0,0,0,0,0,0,0,0,0,0,0,0,0,0,0],"sum_hessian":[1.1432451E3,6.1559845E2,5.276466E2,3.3774026E2,2.7785822E2,5.2111835E2,6.528252E0,8.071066E0,3.296692E2,9.054946E0,2.6880325E2,3.8465616E2,1.3646219E2,3.5443397E0,2.9839127E0],"tree_param":{"num_deleted":"0","num_feature":"39","num_nodes":"15","size_leaf_vector":"1"}},{"base_weights":[-5.2480094E-2,-4.3269888E-2,-4.073725E-1,-3.2612455E-1,-3.5973947E-2,-2.212525E-1,-2.9262778E-1,-8.630905E-2,3.5866775E-2,1.6378112E-1,-7.258188E-3,-1.6977523E-1,-1.3821434E-2],"categories":[],"categories_nodes":[],"categories_segments":[],"categories_sizes":[],"default_left":[0,0,0,0,0,0,0,0,0,0,0,0,0],"id":74,"left_children":[1,3,5,7,9,-1,11,-1,-1,-1,-1,-1,-1],"loss_changes":[3.7569554E0,2.3122535E0,2.5073147E0,1.8246539E0,1.9923743E0,0E0,3.3133733E0,0E0,0E0,0E0,0E0,0E0,0E0],"parents":[2147483647,0,0,1,1,2,2,3,3,4,4,6,6],"right_children":[2,4,6,8,10,-1,12,-1,-1,-1,-1,-1,-1],"split_conditions":[1E0,-3E0,2.54E2,1.4538225E2,1.5E1,-2.212525E-1,4.1109608E1,-8.630905E-2,3.5866775E-2,1.6378112E-1,-7.258188E-3,-1.6977523E-1,-1.3821434E-2],"split_indices":[23,2,1,11,1,0,11,0,0,0,0,0,0],"split_type":[0,0,0,0,0,0,0,0,0,0,0,0,0],"sum_hessian":[1.1489967E3,1.1199425E3,2.9054237E1,2.8148327E1,1.0917942E3,3.8448362E0,2.5209402E1,2.2616098E1,5.532228E0,2.4802592E0,1.089314E3,6.7932277E0,1.8416174E1],"tree_param":{"num_deleted":"0","num_feature":"39","num_nodes":"13","size_leaf_vector":"1"}},{"base_weights":[1.4279172E-3,6.0996998E-2,-5.222043E-2,3.8238573E-1,2.6758406E-2,-4.39024E-2,-5.7239753E-1,4.7940193E-3,1.4334735E-1,2.2951731E-2,-1.839917E-2,-1.0004758E-2,1.114368E-1,5.034797E-2,-1.557069E-1],"categories":[],"categories_nodes":[],"categories_segments":[],"categories_sizes":[],"default_left":[0,0,0,0,0,0,0,0,0,0,0,0,0,0,0],"id":75,"left_children":[1,3,5,7,9,11,13,-1,-1,-1,-1,-1,-1,-1,-1],"loss_changes":[3.6357386E0,5.9320717E0,2.5911338E0,6.8277955E0,5.6054997E0,3.1419268E0,1.9184649E0,0E0,0E0,0E0,0E0,0E0,0E0,0E0,0E0],"parents":[2147483647,0,0,1,1,2,2,3,3,4,4,5,5,6,6],"right_children":[2,4,6,8,10,12,14,-1,-1,-1,-1,-1,-1,-1,-1],"split_conditions":[1E0,1.6763054E1,6.716634E1,1.421267E1,1E1,5.9420773E1,2E0,4.7940193E-3,1.4334735E-1,2.2951731E-2,-1.839917E-2,-1.0004758E-2,1.114368E-1,5.034797E-2,-1.557069E-1],"split_indices":[4,5,6,5,10,6,0,0,0,0,0,0,0,0,0],"split_type":[0,0,0,0,0,0,0,0,0,0,0,0,0,0,0],"sum_hessian":[1.137393E3,5.3898975E2,5.9840326E2,5.188148E1,4.8710825E2,5.8899207E2,9.411177E0,2.6341673E1,2.553981E1,2.7694452E2,2.1016373E2,5.811318E2,7.8602996E0,2.1162658E0,7.2949114E0],"tree_param":{"num_deleted":"0","num_feature":"39","num_nodes":"15","size_leaf_vector":"1"}},{"base_weights":[-2.318077E-2,6.147098E-2,-7.558635E-2,2.4700617E-2,4.7846663E-1,-2.930718E-2,-2.1638198E-1,-1.2385104E-1,7.6387837E-3,1.23742156E-1,-1.2524731E-1,-7.918949E-3,1.7493568E-1,-3.3013E-2,-1.5513809E-1],"categories":[],"categories_nodes":[],"categories_segments":[],"categories_sizes":[],"default_left":[0,0,0,0,0,0,0,0,0,0,0,0,0,0,0],"id":76,"left_children":[1,3,5,7,9,11,13,-1,-1,-1,-1,-1,-1,-1,-1],"loss_changes":[5.0779276E0,6.710658E0,4.606317E0,4.1466303E0,6.8261366E0,6.123289E0,4.534712E0,0E0,0E0,0E0,0E0,0E0,0E0,0E0,0E0],"parents":[2147483647,0,0,1,1,2,2,3,3,4,4,5,5,6,6],"right_children":[2,4,6,8,10,12,14,-1,-1,-1,-1,-1,-1,-1,-1],"split_conditions":[4.66E2,4.36E2,1.4043147E2,6.0827627E0,2E0,1.3960658E2,5E1,-1.2385104E-1,7.6387837E-3,1.23742156E-1,-1.2524731E-1,-7.918949E-3,1.7493568E-1,-3.3013E-2,-1.5513809E-1],"split_indices":[1,1,11,5,2,11,10,0,0,0,0,0,0,0,0],"split_type":[0,0,0,0,0,0,0,0,0,0,0,0,0,0,0],"sum_hessian":[1.1444447E3,4.3756516E2,7.068795E2,4.021159E2,3.5449226E1,5.3202954E2,1.7484998E2,8.931582E0,3.9318433E2,3.0841774E1,4.607451E0,5.252747E2,6.7548575E0,1.6296735E2,1.1882619E1],"tree_param":{"num_deleted":"0","num_feature":"39","num_nodes":"15","size_leaf_vector":"1"}},{"base_weights":[-2.129768E-2,1.7763178E-1,-3.325082E-2,2.2707586E-1,-2.1332464E-1,-1.4916496E-1,-1.6746113E-2,2.9015338E-2,3.8283432E-1,-4.6853885E-2,2.0650577E-2,1.0663489E-2,-1.2521686E-2],"categories":[],"categories_nodes":[],"categories_segments":[],"categories_sizes":[],"default_left":[0,0,0,0,0,0,0,0,0,0,0,0,0],"id":77,"left_children":[1,3,5,7,-1,9,11,-1,-1,-1,-1,-1,-1],"loss_changes":[2.726384E0,4.1637826E0,2.0689662E0,8.362043E0,0E0,3.337955E0,3.3560936E0,0E0,0E0,0E0,0E0,0E0,0E0],"parents":[2147483647,0,0,1,1,2,2,3,3,5,5,6,6],"right_children":[2,4,6,8,-1,10,12,-1,-1,-1,-1,-1,-1],"split_conditions":[-2E0,5.4E1,8.602325E0,4.4E1,-2.1332464E-1,1E0,1.6124516E1,2.9015338E-2,3.8283432E-1,-4.6853885E-2,2.0650577E-2,1.0663489E-2,-1.2521686E-2],"split_indices":[2,10,5,10,0,25,5,0,0,0,0,0,0],"split_type":[0,0,0,0,0,0,0,0,0,0,0,0,0],"sum_hessian":[1.1462114E3,6.495105E1,1.0812604E3,6.256491E1,2.386139E0,1.3473993E2,9.465204E2,6.0030678E1,2.534234E0,9.8080055E1,3.6659878E1,3.8062088E2,5.6589954E2],"tree_param":{"num_deleted":"0","num_feature":"39","num_nodes":"13","size_leaf_vector":"1"}},{"base_weights":[8.763722E-3,-2.027993E-1,2.8536184E-2,-7.158063E-2,-7.4637216E-1,3.468183E-2,-5.471068E-1,-4.7543317E-2,9.4933435E-2,-1.719156E-1,5.250314E-2,5.407163E-3,2.4210887E-1,1.6339695E-2,-1.451799E-1],"categories":[],"categories_nodes":[],"categories_segments":[],"categories_sizes":[],"default_left":[0,0,0,0,0,0,0,0,0,0,0,0,0,0,0],"id":78,"left_children":[1,3,5,7,9,11,13,-1,-1,-1,-1,-1,-1,-1,-1],"loss_changes":[4.7162294E0,6.872216E0,3.6491563E0,7.8344445E0,2.950508E0,8.009651E0,1.4729512E0,0E0,0E0,0E0,0E0,0E0,0E0,0E0,0E0],"parents":[2147483647,0,0,1,1,2,2,3,3,4,4,5,5,6,6],"right_children":[2,4,6,8,10,12,14,-1,-1,-1,-1,-1,-1,-1,-1],"split_conditions":[2E0,4.414748E1,6.1294373E1,1E0,1.3138112E2,5.8077534E1,2.8E2,-4.7543317E-2,9.4933435E-2,-1.719156E-1,5.250314E-2,5.407163E-3,2.4210887E-1,1.6339695E-2,-1.451799E-1],"split_indices":[10,11,5,3,11,5,1,0,0,0,0,0,0,0,0],"split_type":[0,0,0,0,0,0,0,0,0,0,0,0,0,0,0],"sum_hessian":[1.1271978E3,9.632633E1,1.0308715E3,7.7600494E1,1.8725838E1,1.01998846E3,1.0882984E1,5.915514E1,1.8445354E1,1.627578E1,2.4500577E0,1.0147555E3,5.2329826E0,2.738773E0,8.144211E0],"tree_param":{"num_deleted":"0","num_feature":"39","num_nodes":"15","size_leaf_vector":"1"}},{"base_weights":[3.6903612E-2,1.8331071E-2,2.1045256E-1,1.0370239E-1,-2.4522915E-2,4.1512576E-1,-8.090789E-3,5.0526988E-2,6.093383E-4,2.0087464E-3,-3.7843242E-2,-1.4758978E-2,1.244646E-1,-1.625815E-2,2.5252146E-1],"categories":[],"categories_nodes":[],"categories_segments":[],"categories_sizes":[],"default_left":[0,0,0,0,0,0,0,0,0,0,0,0,0,0,0],"id":79,"left_children":[1,3,5,7,9,11,13,-1,-1,-1,-1,-1,-1,-1,-1],"loss_changes":[3.694993E0,3.7891212E0,4.9584265E0,5.5974646E0,4.197258E0,6.67379E0,5.4980793E0,0E0,0E0,0E0,0E0,0E0,0E0,0E0,0E0],"parents":[2147483647,0,0,1,1,2,2,3,3,4,4,5,5,6,6],"right_children":[2,4,6,8,10,12,14,-1,-1,-1,-1,-1,-1,-1,-1],"split_conditions":[3.712142E1,9.013878E1,1E0,1.324052E1,2.657066E1,1.8434948E1,1E0,5.0526988E-2,6.093383E-4,2.0087464E-3,-3.7843242E-2,-1.4758978E-2,1.244646E-1,-1.625815E-2,2.5252146E-1],"split_indices":[5,11,9,6,5,6,8,0,0,0,0,0,0,0,0],"split_type":[0,0,0,0,0,0,0,0,0,0,0,0,0,0,0],"sum_hessian":[1.1461769E3,1.0353947E3,1.10782196E2,3.4606717E2,6.893275E2,5.721536E1,5.3566833E1,1.3303844E2,2.1302872E2,5.7357E2,1.157575E2,1.8569921E1,3.864544E1,5.063721E1,2.9296205E0],"tree_param":{"num_deleted":"0","num_feature":"39","num_nodes":"15","size_leaf_vector":"1"}},{"base_weights":[4.3550245E-3,-1.5264221E-2,2.1975626E-1,-5.4899473E-2,1.3300464E-1,2.881694E-1,1.7248371E-1,-3.67236E-2,-2.5544423E-3,1.3032626E-1,1.9458842E-2,-8.409397E-3,6.985001E-2],"categories":[],"categories_nodes":[],"categories_segments":[],"categories_sizes":[],"default_left":[0,0,0,0,0,0,0,0,0,0,0,0,0],"id":80,"left_children":[1,3,5,7,9,-1,11,-1,-1,-1,-1,-1,-1],"loss_changes":[4.846378E0,6.174471E0,5.8380566E0,4.7304525E0,3.7880924E0,0E0,3.8675687E0,0E0,0E0,0E0,0E0,0E0,0E0],"parents":[2147483647,0,0,1,1,2,2,3,3,4,4,6,6],"right_children":[2,4,6,8,10,-1,12,-1,-1,-1,-1,-1,-1],"split_conditions":[1E0,1.4190489E2,8.7E1,3.06E2,-2E0,2.881694E-1,2.2380135E1,-3.67236E-2,-2.5544423E-3,1.3032626E-1,1.9458842E-2,-8.409397E-3,6.985001E-2],"split_indices":[18,11,1,1,2,0,6,0,0,0,0,0,0],"split_type":[0,0,0,0,0,0,0,0,0,0,0,0,0],"sum_hessian":[1.1462026E3,1.0505028E3,9.5699776E1,8.289368E2,2.2156606E2,3.38159E0,9.2318184E1,1.9231606E2,6.366207E2,1.1859376E1,2.0970667E2,4.353786E1,4.8780327E1],"tree_param":{"num_deleted":"0","num_feature":"39","num_nodes":"13","size_leaf_vector":"1"}},{"base_weights":[-1.797355E-3,5.120857E-1,-8.029007E-3,-1.3932157E-1,7.8882015E-1,-2.099254E-2,2.1768674E-1,3.0528855E-1,4.8157923E-2,-4.8282202E-3,1.573394E-1,-1.4508E-2,9.1971E-2],"categories":[],"categories_nodes":[],"categories_segments":[],"categories_sizes":[],"default_left":[0,0,0,0,0,0,0,0,0,0,0,0,0],"id":81,"left_children":[1,3,5,-1,7,9,11,-1,-1,-1,-1,-1,-1],"loss_changes":[3.706773E0,4.7684255E0,3.3456128E0,0E0,4.92647E0,3.9251726E0,4.815669E0,0E0,0E0,0E0,0E0,0E0,0E0],"parents":[2147483647,0,0,1,1,2,2,4,4,5,5,6,6],"right_children":[2,4,6,-1,8,10,12,-1,-1,-1,-1,-1,-1],"split_conditions":[3.1622777E0,5.3952646E0,1E0,-1.3932157E-1,0E0,1.2761269E2,1.3138112E2,3.0528855E-1,4.8157923E-2,-4.8282202E-3,1.573394E-1,-1.4508E-2,9.1971E-2],"split_indices":[11,6,19,0,2,5,11,0,0,0,0,0,0],"split_type":[0,0,0,0,0,0,0,0,0,0,0,0,0],"sum_hessian":[1.1568918E3,1.3853812E1,1.1430381E3,2.5223093E0,1.1331504E1,1.0809713E3,6.2066704E1,4.5125875E0,6.818916E0,1.0755109E3,5.4604306E0,2.9374493E1,3.2692207E1],"tree_param":{"num_deleted":"0","num_feature":"39","num_nodes":"13","size_leaf_vector":"1"}},{"base_weights":[5.32922E-2,8.7130375E-2,-2.2967597E-2,1.2846878E-2,2.2012226E-1,-4.7286287E-2,9.435277E-1,2.8342344E-2,-1.4627675E-2,1.9816552E-1,3.2415934E-2,-1.5852545E-1,-6.479126E-3,5.434577E-2,5.231033E-1],"categories":[],"categories_nodes":[],"categories_segments":[],"categories_sizes":[],"default_left":[0,0,0,0,0,0,0,0,0,0,0,0,0,0,0],"id":82,"left_children":[1,3,5,7,9,11,13,-1,-1,-1,-1,-1,-1,-1,-1],"loss_changes":[2.9499593E0,7.8213096E0,8.259355E0,6.163021E0,1.1684481E1,3.5851228E0,1.0201954E1,0E0,0E0,0E0,0E0,0E0,0E0,0E0,0E0],"parents":[2147483647,0,0,1,1,2,2,3,3,4,4,5,5,6,6],"right_children":[2,4,6,8,10,12,14,-1,-1,-1,-1,-1,-1,-1,-1],"split_conditions":[1.3465883E2,1.0770329E2,1E0,1.3781597E1,1.09457756E2,1.3507405E2,4.6735706E1,2.8342344E-2,-1.4627675E-2,1.9816552E-1,3.2415934E-2,-1.5852545E-1,-6.479126E-3,5.434577E-2,5.231033E-1],"split_indices":[11,11,31,6,11,11,6,0,0,0,0,0,0,0,0],"split_type":[0,0,0,0,0,0,0,0,0,0,0,0,0,0,0],"sum_hessian":[1.1429166E3,7.9168E2,3.512366E2,5.0797537E2,2.8370462E2,3.426196E2,8.616993E0,2.0193832E2,3.0603705E2,1.6452892E1,2.6725174E2,5.741082E0,3.3687854E2,6.305736E0,2.311257E0],"tree_param":{"num_deleted":"0","num_feature":"39","num_nodes":"15","size_leaf_vector":"1"}},{"base_weights":[-2.6779821E-2,-7.368109E-2,5.295838E-2,4.1648385E-1,-8.375422E-2,8.029022E-1,4.006588E-2,-4.0721063E-2,1.3937731E-1,-3.7116166E-2,-8.549826E-3,2.580337E-1,-7.1581453E-3,2.0618409E-2,-2.267487E-2],"categories":[],"categories_nodes":[],"categories_segments":[],"categories_sizes":[],"default_left":[0,0,0,0,0,0,0,0,0,0,0,0,0,0,0],"id":83,"left_children":[1,3,5,7,9,11,13,-1,-1,-1,-1,-1,-1,-1,-1],"loss_changes":[4.3410306E0,3.6100817E0,4.1581545E0,2.9091792E0,3.0879083E0,3.3550491E0,4.5587883E0,0E0,0E0,0E0,0E0,0E0,0E0,0E0,0E0],"parents":[2147483647,0,0,1,1,2,2,3,3,4,4,5,5,6,6],"right_children":[2,4,6,8,10,12,14,-1,-1,-1,-1,-1,-1,-1,-1],"split_conditions":[2.861046E1,4.2426405E0,1E0,2.236068E0,1.1401754E1,2.9546574E1,3E0,-4.0721063E-2,1.3937731E-1,-3.7116166E-2,-8.549826E-3,2.580337E-1,-7.1581453E-3,2.0618409E-2,-2.267487E-2],"split_indices":[6,11,10,11,5,11,0,0,0,0,0,0,0,0,0],"split_type":[0,0,0,0,0,0,0,0,0,0,0,0,0,0,0],"sum_hessian":[1.160536E3,7.3075824E2,4.2977777E2,1.4707496E1,7.160507E2,7.258612E0,4.2251917E2,4.8837843E0,9.823711E0,1.8652905E2,5.2952167E2,4.394881E0,2.8637316E0,2.9597403E2,1.2654515E2],"tree_param":{"num_deleted":"0","num_feature":"39","num_nodes":"15","size_leaf_vector":"1"}},{"base_weights":[9.877893E-3,6.303432E-2,-7.1048975E-2,4.0238347E-2,2.8097254E-1,-5.914596E-1,-4.3898776E-2,6.543393E-2,3.0899956E-3,1.114767E-1,4.197649E-3,-2.9242368E-2,-1.467944E-1,4.482016E-2,-1.9610712E-2],"categories":[],"categories_nodes":[],"categories_segments":[],"categories_sizes":[],"default_left":[0,0,0,0,0,0,0,0,0,0,0,0,0,0,0],"id":84,"left_children":[1,3,5,7,9,11,13,-1,-1,-1,-1,-1,-1,-1,-1],"loss_changes":[4.9663954E0,3.4620473E0,6.4671373E0,4.5901127E0,5.1735396E0,1.7619462E0,7.1275473E0,0E0,0E0,0E0,0E0,0E0,0E0,0E0,0E0],"parents":[2147483647,0,0,1,1,2,2,3,3,4,4,5,5,6,6],"right_children":[2,4,6,8,10,12,14,-1,-1,-1,-1,-1,-1,-1,-1],"split_conditions":[2.6995838E1,2.4443954E1,9.899495E0,1.20415945E1,1.11085556E2,3.563981E1,9.433981E0,6.543393E-2,3.0899956E-3,1.114767E-1,4.197649E-3,-2.9242368E-2,-1.467944E-1,4.482016E-2,-1.9610712E-2],"split_indices":[6,6,11,11,11,6,5,0,0,0,0,0,0,0,0],"split_type":[0,0,0,0,0,0,0,0,0,0,0,0,0,0,0],"sum_hessian":[1.1542859E3,6.967052E2,4.5758075E2,6.307474E2,6.595778E1,2.2681744E1,4.3489902E2,4.6459198E1,5.842882E2,3.0397629E1,3.5560154E1,6.539318E0,1.6142426E1,7.577989E1,3.591191E2],